{"learner":{"attributes":{"scikit_learn":"{\"_estimator_type\": \"classifier\"}"},"feature_names":[],"feature_types":[],"gradient_booster":{"model":{"gbtree_model_param":{"num_parallel_tree":"1","num_trees":"500"},"iteration_indptr":[0,5,10,15,20,25,30,35,40,45,50,55,60,65,70,75,80,85,90,95,100,105,110,115,120,125,130,135,140,145,150,155,160,165,170,175,180,185,190,195,200,205,210,215,220,225,230,235,240,245,250,255,260,265,270,275,280,285,290,295,300,305,310,315,320,325,330,335,340,345,350,355,360,365,370,375,380,385,390,395,400,405,410,415,420,425,430,435,440,445,450,455,460,465,470,475,480,485,490,495,500],"tree_info":[0,1,2,3,4,0,1,2,3,4,0,1,2,3,4,0,1,2,3,4,0,1,2,3,4,0,1,2,3,4,0,1,2,3,4,0,1,2,3,4,0,1,2,3,4,0,1,2,3,4,0,1,2,3,4,0,1,2,3,4,0,1,2,3,4,0,1,2,3,4,0,1,2,3,4,0,1,2,3,4,0,1,2,3,4,0,1,2,3,4,0,1,2,3,4,0,1,2,3,4,0,1,2,3,4,0,1,2,3,4,0,1,2,3,4,0,1,2,3,4,0,1,2,3,4,0,1,2,3,4,0,1,2,3,4,0,1,2,3,4,0,1,2,3,4,0,1,2,3,4,0,1,2,3,4,0,1,2,3,4,0,1,2,3,4,0,1,2,3,4,0,1,2,3,4,0,1,2,3,4,0,1,2,3,4,0,1,2,3,4,0,1,2,3,4,0,1,2,3,4,0,1,2,3,4,0,1,2,3,4,0,1,2,3,4,0,1,2,3,4,0,1,2,3,4,0,1,2,3,4,0,1,2,3,4,0,1,2,3,4,0,1,2,3,4,0,1,2,3,4,0,1,2,3,4,0,1,2,3,4,0,1,2,3,4,0,1,2,3,4,0,1,2,3,4,0,1,2,3,4,0,1,2,3,4,0,1,2,3,4,0,1,2,3,4,0,1,2,3,4,0,1,2,3,4,0,1,2,3,4,0,1,2,3,4,0,1,2,3,4,0,1,2,3,4,0,1,2,3,4,0,1,2,3,4,0,1,2,3,4,0,1,2,3,4,0,1,2,3,4,0,1,2,3,4,0,1,2,3,4,0,1,2,3,4,0,1,2,3,4,0,1,2,3,4,0,1,2,3,4,0,1,2,3,4,0,1,2,3,4,0,1,2,3,4,0,1,2,3,4,0,1,2,3,4,0,1,2,3,4,0,1,2,3,4,0,1,2,3,4,0,1,2,3,4,0,1,2,3,4,0,1,2,3,4,0,1,2,3,4,0,1,2,3,4,0,1,2,3,4,0,1,2,3,4,0,1,2,3,4,0,1,2,3,4,0,1,2,3,4,0,1,2,3,4,0,1,2,3,4,0,1,2,3,4,0,1,2,3,4,0,1,2,3,4,0,1,2,3,4],"trees":[{"base_weights":[3.9689303E-3,-5.725682E-1,6.4888775E-2,-1.2157527E-1,-5.088796E-2,4.4192027E-2,3.3684763E-1,4.6932578E-2,-2.3340514E-2],"categories":[],"categories_nodes":[],"categories_segments":[],"categories_sizes":[],"default_left":[0,0,0,0,0,0,0,0,0],"id":0,"left_children":[1,3,5,-1,-1,7,-1,-1,-1],"loss_changes":[1.7703503E1,2.9997253E-1,1.5078739E1,0E0,0E0,1.3909495E1,0E0,0E0,0E0],"parents":[2147483647,0,0,1,1,2,2,5,5],"right_children":[2,4,6,-1,-1,8,-1,-1,-1],"split_conditions":[9.3596E0,1E0,1.5019046E-1,-1.2157527E-1,-5.088796E-2,1.4024963E1,3.3684763E-1,4.6932578E-2,-2.3340514E-2],"split_indices":[5000,5006,4511,0,0,5010,0,0,0],"split_type":[0,0,0,0,0,0,0,0,0],"sum_hessian":[5.0343704E2,4.715245E1,4.562846E2,4.1339207E1,5.813245E0,4.5160178E2,4.6828356E0,2.068687E2,2.4473308E2],"tree_param":{"num_deleted":"0","num_feature":"5012","num_nodes":"9","size_leaf_vector":"1"}},{"base_weights":[1.970851E-3,-4.2816573E-1,1.8759923E0,-2.671942E-1,-5.000806E-1,2.224868E0,-4.1971678E-1,-8.701377E-2,8.004805E-2,-1.0189765E-1,5.0938822E-2,2.6653437E-2,4.639144E-1,-1.0915883E-1,-2.0730106E-2],"categories":[],"categories_nodes":[],"categories_segments":[],"categories_sizes":[],"default_left":[0,0,0,0,0,0,0,0,0,0,0,0,0,0,0],"id":1,"left_children":[1,3,5,7,9,11,13,-1,-1,-1,-1,-1,-1,-1,-1],"loss_changes":[4.1387027E2,4.6215744E0,7.788742E1,1.4908101E1,2.1926422E0,1.5967194E1,4.1440773E-1,0E0,0E0,0E0,0E0,0E0,0E0,0E0,0E0],"parents":[2147483647,0,0,1,1,2,2,3,3,4,4,5,5,6,6],"right_children":[2,4,6,8,10,12,14,-1,-1,-1,-1,-1,-1,-1,-1],"split_conditions":[1.2E1,1.4E1,7.391754E1,1.4181998E2,3.092447E-1,5.948401E1,1.3E1,-8.701377E-2,8.004805E-2,-1.0189765E-1,5.0938822E-2,2.6653437E-2,4.639144E-1,-1.0915883E-1,-2.0730106E-2],"split_indices":[5003,5001,5009,5009,2664,5009,5003,0,0,0,0,0,0,0,0],"split_type":[0,0,0,0,0,0,0,0,0,0,0,0,0,0,0],"sum_hessian":[5.112564E2,4.1639996E2,9.485644E1,1.30469E2,2.8593097E2,8.24075E1,1.2448934E1,1.04646126E2,2.5822866E1,2.828628E2,3.068187E0,3.719656E0,7.868784E1,8.153368E0,4.2955656E0],"tree_param":{"num_deleted":"0","num_feature":"5012","num_nodes":"15","size_leaf_vector":"1"}},{"base_weights":[-1.445117E-2,-8.1096515E-2,4.5669946E-1,-1.13796145E-1,4.2788172E-1,-2.8241767E-2,2.95593E-1],"categories":[],"categories_nodes":[],"categories_segments":[],"categories_sizes":[],"default_left":[0,0,0,0,0,0,0],"id":2,"left_children":[1,3,-1,5,-1,-1,-1],"loss_changes":[7.803612E1,3.6085617E1,0E0,2.1464943E1,0E0,0E0,0E0],"parents":[2147483647,0,0,1,1,3,3],"right_children":[2,4,-1,6,-1,-1,-1],"split_conditions":[5.4631644E-1,2.652867E-1,4.5669946E-1,4.245288E-1,4.2788172E-1,-2.8241767E-2,2.95593E-1],"split_indices":[478,3355,0,4427,0,0,0],"split_type":[0,0,0,0,0,0,0],"sum_hessian":[5.0877744E2,4.954175E2,1.3359925E1,4.8920712E2,6.21038E0,4.8188245E2,7.3246784E0],"tree_param":{"num_deleted":"0","num_feature":"5012","num_nodes":"7","size_leaf_vector":"1"}},{"base_weights":[-8.972213E-3,2.0726876E0,-2.182175E-1,4.6296865E-1,9.040963E-2,2.599584E-1,-5.727065E-1,-9.599973E-3,1.9719152E-1,-5.051265E-2,-1.1891289E-1],"categories":[],"categories_nodes":[],"categories_segments":[],"categories_sizes":[],"default_left":[0,0,0,0,0,0,0,0,0,0,0],"id":3,"left_children":[1,3,5,-1,-1,7,9,-1,-1,-1,-1],"loss_changes":[2.3037823E2,1.7633759E1,8.17112E1,0E0,0E0,4.6049862E1,1.7010117E0,0E0,0E0,0E0,0E0],"parents":[2147483647,0,0,1,1,2,2,5,5,6,6],"right_children":[2,4,6,-1,-1,8,10,-1,-1,-1,-1],"split_conditions":[2.8859677E2,1E0,1E0,4.6296865E-1,9.040963E-2,6E0,1.2E1,-9.599973E-3,1.9719152E-1,-5.051265E-2,-1.1891289E-1],"split_indices":[5011,5004,5004,0,0,5002,5010,0,0,0,0],"split_type":[0,0,0,0,0,0,0,0,0,0,0],"sum_hessian":[5.272903E2,4.730426E1,4.7998605E2,4.0728554E1,6.5757065E0,2.0433708E2,2.7564896E2,1.4403548E2,6.0301605E1,1.8712019E1,2.5693695E2],"tree_param":{"num_deleted":"0","num_feature":"5012","num_nodes":"11","size_leaf_vector":"1"}},{"base_weights":[-4.468632E-2,-5.1860297E-1,5.4963386E-1,-1.2443053E-1,4.3439946E-1,-1.1077984E-2,1.1021316E0,-1.1355865E-1,2.3739314E-1,-3.174895E-2,4.2817798E-1,1.2758249E-1,3.6145946E-1],"categories":[],"categories_nodes":[],"categories_segments":[],"categories_sizes":[],"default_left":[0,0,0,0,0,0,0,0,0,0,0,0,0],"id":4,"left_children":[1,3,5,-1,7,9,11,-1,-1,-1,-1,-1,-1],"loss_changes":[1.4260298E2,2.8091362E1,6.968939E1,0E0,2.1933943E1,3.5844707E1,3.5662094E1,0E0,0E0,0E0,0E0,0E0,0E0],"parents":[2147483647,0,0,1,1,2,2,4,4,5,5,6,6],"right_children":[2,4,6,-1,8,10,12,-1,-1,-1,-1,-1,-1],"split_conditions":[3E0,1.6654001E1,1E0,-1.2443053E-1,1.0613999E2,3.4099248E-1,3.2075092E2,-1.1355865E-1,2.3739314E-1,-3.174895E-2,4.2817798E-1,1.2758249E-1,3.6145946E-1],"split_indices":[5002,5010,5004,0,5009,3653,5009,0,0,0,0,0,0],"split_type":[0,0,0,0,0,0,0,0,0,0,0,0,0],"sum_hessian":[5.0429703E2,2.8073328E2,2.2356375E2,2.5362718E2,2.710609E1,1.113536E2,1.1221015E2,1.1673342E1,1.5432748E1,1.0511347E2,6.2401233E0,6.889932E1,4.3310825E1],"tree_param":{"num_deleted":"0","num_feature":"5012","num_nodes":"13","size_leaf_vector":"1"}},{"base_weights":[1.3745414E-2,-6.0998842E-2,5.2492446E-1,-1.3396862E-1,4.8240206E-1,7.407869E-1,-2.1991685E-1,-1.4956077E-2,-1.1366238E-1,2.675572E-1,1.5145215E-2,3.5889935E-1,9.875917E-2,7.3915794E-2,-1.10359885E-1],"categories":[],"categories_nodes":[],"categories_segments":[],"categories_sizes":[],"default_left":[0,0,0,0,0,0,0,0,0,0,0,0,0,0,0],"id":5,"left_children":[1,3,5,7,9,11,13,-1,-1,-1,-1,-1,-1,-1,-1],"loss_changes":[1.9367945E1,1.7523457E1,1.0614153E1,9.916668E0,1.79454E1,1.2022411E1,3.1958644E0,0E0,0E0,0E0,0E0,0E0,0E0,0E0,0E0],"parents":[2147483647,0,0,1,1,2,2,3,3,4,4,5,5,6,6],"right_children":[2,4,6,8,10,12,14,-1,-1,-1,-1,-1,-1,-1,-1],"split_conditions":[1.302E1,1E0,1E0,6.7E1,2E1,1.4E1,2.6E1,-1.4956077E-2,-1.1366238E-1,2.675572E-1,1.5145215E-2,3.5889935E-1,9.875917E-2,7.3915794E-2,-1.10359885E-1],"split_indices":[5000,5006,5006,5001,5001,5000,5001,0,0,0,0,0,0,0,0],"split_type":[0,0,0,0,0,0,0,0,0,0,0,0,0,0,0],"sum_hessian":[5.038599E2,4.4018185E2,6.367805E1,3.888969E2,5.128495E1,4.947841E1,1.419964E1,3.4349152E2,4.5405403E1,1.5708642E1,3.5576305E1,8.128865E0,4.1349545E1,4.9652967E0,9.2343445E0],"tree_param":{"num_deleted":"0","num_feature":"5012","num_nodes":"15","size_leaf_vector":"1"}},{"base_weights":[9.3415537E-4,-1.8487109E-1,3.2905045E-1,-4.0663972E-1,3.2885036E-1,-8.415804E-2,1.7944346E-1],"categories":[],"categories_nodes":[],"categories_segments":[],"categories_sizes":[],"default_left":[0,0,0,0,0,0,0],"id":6,"left_children":[1,3,-1,5,-1,-1,-1],"loss_changes":[1.5741127E2,1.8812645E2,0E0,7.9549484E0,0E0,0E0,0E0],"parents":[2147483647,0,0,1,1,3,3],"right_children":[2,4,-1,6,-1,-1,-1],"split_conditions":[1E0,1E0,3.2905045E-1,3.2373974E-1,3.2885036E-1,-8.415804E-2,1.7944346E-1],"split_indices":[2543,2516,0,2341,0,0,0],"split_type":[0,0,0,0,0,0,0],"sum_hessian":[5.127456E2,4.6143137E2,5.1314236E1,4.1227786E2,4.9153507E1,4.085974E2,3.6804488E0],"tree_param":{"num_deleted":"0","num_feature":"5012","num_nodes":"7","size_leaf_vector":"1"}},{"base_weights":[-2.2008337E-4,-4.744451E-2,3.020687E-1,-1.6132335E-1,4.2136633E-1,-3.744137E-2,3.902878E-1,1.2738134E-1,-9.239804E-2],"categories":[],"categories_nodes":[],"categories_segments":[],"categories_sizes":[],"default_left":[0,0,0,0,0,0,0,0,0],"id":7,"left_children":[1,3,-1,5,7,-1,-1,-1,-1],"loss_changes":[3.654964E1,2.6675917E1,0E0,2.2187511E1,1.8895502E1,0E0,0E0,0E0,0E0],"parents":[2147483647,0,0,1,1,3,3,4,4],"right_children":[2,4,-1,6,8,-1,-1,-1,-1],"split_conditions":[5.4631644E-1,3.7617593E2,3.020687E-1,3.4393218E-1,1.302E1,-3.744137E-2,3.902878E-1,1.2738134E-1,-9.239804E-2],"split_indices":[478,5009,0,4023,5000,0,0,0,0],"split_type":[0,0,0,0,0,0,0,0,0],"sum_hessian":[5.1240875E2,4.978785E2,1.4530276E1,4.0127417E2,9.6604324E1,3.9736478E2,3.909396E0,7.797138E1,1.8632942E1],"tree_param":{"num_deleted":"0","num_feature":"5012","num_nodes":"9","size_leaf_vector":"1"}},{"base_weights":[9.003797E-3,1.2780507E0,-2.2114539E-1,1.5527605E0,2.3151846E-1,-4.1345245E-1,3.4773085E-1,3.1954733E-1,1.4905874E-1,1.5097366E-1,-2.930657E-3,-9.458867E-2,1.7072914E-2,1.7308687E-1,5.218666E-3],"categories":[],"categories_nodes":[],"categories_segments":[],"categories_sizes":[],"default_left":[0,0,0,0,0,0,0,0,0,0,0,0,0,0,0],"id":8,"left_children":[1,3,5,7,9,11,13,-1,-1,-1,-1,-1,-1,-1,-1],"loss_changes":[1.4687987E2,2.1659882E1,4.668331E1,7.8685E-1,2.3145032E0,9.52998E0,1.7850594E1,0E0,0E0,0E0,0E0,0E0,0E0,0E0,0E0],"parents":[2147483647,0,0,1,1,2,2,3,3,4,4,5,5,6,6],"right_children":[2,4,6,8,10,12,14,-1,-1,-1,-1,-1,-1,-1,-1],"split_conditions":[5.4531824E2,1.1E1,6E0,3.8432E1,3E0,1E0,1.2E1,3.1954733E-1,1.4905874E-1,1.5097366E-1,-2.930657E-3,-9.458867E-2,1.7072914E-2,1.7308687E-1,5.218666E-3],"split_indices":[5011,5000,5002,5009,5003,5008,5000,0,0,0,0,0,0,0,0],"split_type":[0,0,0,0,0,0,0,0,0,0,0,0,0,0,0],"sum_hessian":[5.00563E2,7.621169E1,4.243513E2,5.990708E1,1.6304607E1,3.1747778E2,1.06873505E2,5.5701927E1,4.205154E0,4.6847777E0,1.161983E1,2.8387418E2,3.360361E1,4.018716E1,6.668634E1],"tree_param":{"num_deleted":"0","num_feature":"5012","num_nodes":"15","size_leaf_vector":"1"}},{"base_weights":[-4.6937734E-2,-4.98629E-1,4.8029563E-1,-1.2093868E-1,1.35806E-1,2.2597487E-1,1.2292619E0,-4.893486E-2,1.9602185E-1,8.085576E-2,-7.4644394E-2,-9.0549216E-2,2.6844248E-1],"categories":[],"categories_nodes":[],"categories_segments":[],"categories_sizes":[],"default_left":[0,0,0,0,0,0,0,0,0,0,0,0,0],"id":9,"left_children":[1,3,5,-1,7,9,11,-1,-1,-1,-1,-1,-1],"loss_changes":[1.1662172E2,1.7879997E1,4.2605106E1,0E0,1.2670136E1,1.8312387E1,1.1513756E1,0E0,0E0,0E0,0E0,0E0,0E0],"parents":[2147483647,0,0,1,1,2,2,4,4,5,5,6,6],"right_children":[2,4,6,-1,8,10,12,-1,-1,-1,-1,-1,-1],"split_conditions":[2E1,1.4981995E1,1.5972E1,-1.2093868E-1,4.227207E3,1.4759979E1,1.7090521E2,-4.893486E-2,1.9602185E-1,8.085576E-2,-7.4644394E-2,-9.0549216E-2,2.6844248E-1],"split_indices":[5001,5010,5010,0,5011,5010,5009,0,0,0,0,0,0],"split_type":[0,0,0,0,0,0,0,0,0,0,0,0,0],"sum_hessian":[4.8769202E2,2.6279462E2,2.2489742E2,2.253288E2,3.746581E1,1.6896014E2,5.593727E1,2.623495E1,1.123086E1,1.305919E2,3.836824E1,3.2749166E0,5.2662357E1],"tree_param":{"num_deleted":"0","num_feature":"5012","num_nodes":"13","size_leaf_vector":"1"}},{"base_weights":[3.1176368E-2,-1.556079E-1,1.8560885E-1,-2.2070764E-1,6.6972405E-1,2.9542494E-1,-1.16773956E-1,-9.134175E-2,-2.4619227E-2,6.8649136E-2,2.8874132E-1,6.681747E-2,-1.0938098E-1],"categories":[],"categories_nodes":[],"categories_segments":[],"categories_sizes":[],"default_left":[0,0,0,0,0,0,0,0,0,0,0,0,0],"id":10,"left_children":[1,3,5,7,9,11,-1,-1,-1,-1,-1,-1,-1],"loss_changes":[1.4468241E1,1.2286518E1,2.3356953E1,4.7475595E0,3.5492234E0,8.015789E0,0E0,0E0,0E0,0E0,0E0,0E0,0E0],"parents":[2147483647,0,0,1,1,2,2,3,3,4,4,5,5],"right_children":[2,4,6,8,10,12,-1,-1,-1,-1,-1,-1,-1],"split_conditions":[1E0,1E0,1.6348034E-1,2E0,1.91315E2,1.7592631E-1,-1.16773956E-1,-9.134175E-2,-2.4619227E-2,6.8649136E-2,2.8874132E-1,6.681747E-2,-1.0938098E-1],"split_indices":[5004,5006,2516,5002,5009,1424,0,0,0,0,0,0,0],"split_type":[0,0,0,0,0,0,0,0,0,0,0,0,0],"sum_hessian":[4.994708E2,2.2576073E2,2.7371008E2,2.1004662E2,1.5714112E1,2.4017899E2,3.3531094E1,6.0081272E1,1.4996535E2,1.2158247E1,3.5558648E0,2.3032912E2,9.849867E0],"tree_param":{"num_deleted":"0","num_feature":"5012","num_nodes":"13","size_leaf_vector":"1"}},{"base_weights":[8.850346E-3,-3.705539E-1,1.0076668E0,-3.8947126E-1,2.2762766E-1,1.1541115E0,-1.04426466E-1,-5.9631705E-2,-9.600468E-2,-9.902394E-2,2.4326606E-1],"categories":[],"categories_nodes":[],"categories_segments":[],"categories_sizes":[],"default_left":[0,0,0,0,0,0,0,0,0,0,0],"id":11,"left_children":[1,3,5,7,-1,9,-1,-1,-1,-1,-1],"loss_changes":[1.8385622E2,1.0398373E1,3.0592575E1,2.6555977E0,0E0,1.32222595E1,0E0,0E0,0E0,0E0,0E0],"parents":[2147483647,0,0,1,1,2,2,3,3,5,5],"right_children":[2,4,6,8,-1,10,-1,-1,-1,-1,-1],"split_conditions":[1.2E1,7.0686203E-1,1.0395667E3,2.1E1,2.2762766E-1,1.2E1,-1.04426466E-1,-5.9631705E-2,-9.600468E-2,-9.902394E-2,2.4326606E-1],"split_indices":[5003,2341,5011,5001,0,5010,0,0,0,0,0],"split_type":[0,0,0,0,0,0,0,0,0,0,0],"sum_hessian":[4.8301266E2,3.5042957E2,1.3258311E2,3.468881E2,3.5414681E0,1.212838E2,1.1299314E1,1.7540588E2,1.7148221E2,4.09783E0,1.17185974E2],"tree_param":{"num_deleted":"0","num_feature":"5012","num_nodes":"11","size_leaf_vector":"1"}},{"base_weights":[4.1547837E-3,-4.768849E-2,2.4012743E-1,-7.8180596E-2,3.1744286E-1,-8.163889E-2,9.6131945E-3],"categories":[],"categories_nodes":[],"categories_segments":[],"categories_sizes":[],"default_left":[0,0,0,0,0,0,0],"id":12,"left_children":[1,3,-1,5,-1,-1,-1],"loss_changes":[3.1075663E1,2.3821758E1,0E0,1.9664179E1,0E0,0E0,0E0],"parents":[2147483647,0,0,1,1,3,3],"right_children":[2,4,-1,6,-1,-1,-1],"split_conditions":[5.8808565E-1,2.5693467E-1,2.4012743E-1,1.2164276E1,3.1744286E-1,-8.163889E-2,9.6131945E-3],"split_indices":[4622,2724,0,5010,0,0,0],"split_type":[0,0,0,0,0,0,0],"sum_hessian":[4.971997E2,4.7739105E2,1.9808668E1,4.6964517E2,7.745872E0,1.2955133E2,3.4009384E2],"tree_param":{"num_deleted":"0","num_feature":"5012","num_nodes":"7","size_leaf_vector":"1"}},{"base_weights":[-1.3490316E-2,9.611956E-1,-2.2181253E-1,2.4640246E-1,6.687525E-1,9.703207E-3,-5.1997817E-1,1.5156361E-1,7.206019E-2,1.1154803E-1,-2.511317E-2,-1.0689326E-1,-0E0],"categories":[],"categories_nodes":[],"categories_segments":[],"categories_sizes":[],"default_left":[0,0,0,0,0,0,0,0,0,0,0,0,0],"id":13,"left_children":[1,3,5,-1,7,9,11,-1,-1,-1,-1,-1,-1],"loss_changes":[1.0193319E2,5.985924E0,2.8630585E1,0E0,8.475647E-1,1.7445988E1,1.3648033E0,0E0,0E0,0E0,0E0,0E0,0E0],"parents":[2147483647,0,0,1,1,2,2,4,4,5,5,6,6],"right_children":[2,4,6,-1,8,10,12,-1,-1,-1,-1,-1,-1],"split_conditions":[5.4531824E2,1.1142242E1,1E0,2.4640246E-1,1E0,1.9930864E3,5E0,1.5156361E-1,7.206019E-2,1.1154803E-1,-2.511317E-2,-1.0689326E-1,-0E0],"split_indices":[5011,5009,5007,0,5007,5011,5002,0,0,0,0,0,0],"split_type":[0,0,0,0,0,0,0,0,0,0,0,0,0],"sum_hessian":[5.0032755E2,8.7384415E1,4.1294315E2,4.352414E1,4.3860275E1,2.3280772E2,1.801354E2,3.2651184E1,1.1209092E1,4.56153E1,1.8719243E2,1.7522606E2,4.90936E0],"tree_param":{"num_deleted":"0","num_feature":"5012","num_nodes":"13","size_leaf_vector":"1"}},{"base_weights":[6.449128E-4,-1.1776408E-1,3.378082E-1,1.2301144E-1,1.2006335E0,-2.3937315E-2,1.691226E-1,-1.01729654E-1,2.7348125E-1],"categories":[],"categories_nodes":[],"categories_segments":[],"categories_sizes":[],"default_left":[0,0,0,0,0,0,0,0,0],"id":14,"left_children":[1,-1,3,5,7,-1,-1,-1,-1],"loss_changes":[9.7966705E1,0E0,5.786893E1,4.444228E1,1.854995E1,0E0,0E0,0E0,0E0],"parents":[2147483647,0,0,2,2,3,3,4,4],"right_children":[2,-1,4,6,8,-1,-1,-1,-1],"split_conditions":[9.2709625E1,-1.1776408E-1,1E0,1.6654001E1,1.5344888E2,-2.3937315E-2,1.691226E-1,-1.01729654E-1,2.7348125E-1],"split_indices":[5009,0,5006,5010,5009,0,0,0,0],"split_type":[0,0,0,0,0,0,0,0,0],"sum_hessian":[4.9104953E2,1.782939E2,3.1275565E2,2.5142332E2,6.1332317E1,1.8873085E2,6.2692486E1,5.216629E0,5.611569E1],"tree_param":{"num_deleted":"0","num_feature":"5012","num_nodes":"9","size_leaf_vector":"1"}},{"base_weights":[-2.8999181E-2,5.3473942E-2,-4.3616906E-1,-1.3155613E-2,8.305472E-1,5.006674E-1,-1.09602846E-1,-1.1637435E-1,8.917241E-3,1.9972335E-1,-9.390464E-2,2.0589681E-1,-9.1007404E-2],"categories":[],"categories_nodes":[],"categories_segments":[],"categories_sizes":[],"default_left":[0,0,0,0,0,0,0,0,0,0,0,0,0],"id":15,"left_children":[1,3,5,7,9,11,-1,-1,-1,-1,-1,-1,-1],"loss_changes":[1.7493038E1,2.2477835E1,9.473293E0,1.3184562E1,8.011538E0,5.4715204E0,0E0,0E0,0E0,0E0,0E0,0E0,0E0],"parents":[2147483647,0,0,1,1,2,2,3,3,4,4,5,5],"right_children":[2,4,6,8,10,12,-1,-1,-1,-1,-1,-1,-1],"split_conditions":[1.1666667E1,9.333333E0,1.104E1,9.3596E0,4.681181E2,1.8E1,-1.09602846E-1,-1.1637435E-1,8.917241E-3,1.9972335E-1,-9.390464E-2,2.0589681E-1,-9.1007404E-2],"split_indices":[5003,5003,5000,5000,5009,5001,0,0,0,0,0,0,0],"split_type":[0,0,0,0,0,0,0,0,0,0,0,0,0],"sum_hessian":[5.1809314E2,4.313461E2,8.6747E1,3.9806842E2,3.3277695E1,8.785708E0,7.7961296E1,3.601369E1,3.6205472E2,2.9741577E1,3.5361152E0,5.6737227E0,3.1119857E0],"tree_param":{"num_deleted":"0","num_feature":"5012","num_nodes":"13","size_leaf_vector":"1"}},{"base_weights":[-1.7132457E-2,-3.6838537E-1,8.8153803E-1,-3.8413948E-1,1.741653E-1,1.9337867E-1,-7.446589E-2,-4.6193365E-2,-9.165761E-2],"categories":[],"categories_nodes":[],"categories_segments":[],"categories_sizes":[],"default_left":[0,0,0,0,0,0,0,0,0],"id":16,"left_children":[1,3,5,7,-1,-1,-1,-1,-1],"loss_changes":[1.5123058E2,7.0137672E0,1.4825516E1,3.6989136E0,0E0,0E0,0E0,0E0,0E0],"parents":[2147483647,0,0,1,1,2,2,3,3],"right_children":[2,4,6,8,-1,-1,-1,-1,-1],"split_conditions":[1.2E1,3.2607144E-1,1.0395667E3,1.4E1,1.741653E-1,1.9337867E-1,-7.446589E-2,-4.6193365E-2,-9.165761E-2],"split_indices":[5003,2341,5011,5001,0,0,0,0,0],"split_type":[0,0,0,0,0,0,0,0,0],"sum_hessian":[4.7722604E2,3.4362045E2,1.3360559E2,3.4006787E2,3.5525777E0,1.25379196E2,8.226389E0,1.12706856E2,2.2736102E2],"tree_param":{"num_deleted":"0","num_feature":"5012","num_nodes":"9","size_leaf_vector":"1"}},{"base_weights":[6.542583E-3,-3.7918958E-1,1.5960917E-1,-4.4174424E-1,2.7913886E-1,3.2865497E-1,-3.5275403E-1,-9.8262616E-2,2.4473043E-1,4.729361E-3,1.2373835E-1,1.2728882E-2,-1.038998E-1],"categories":[],"categories_nodes":[],"categories_segments":[],"categories_sizes":[],"default_left":[0,0,0,0,0,0,0,0,0,0,0,0,0],"id":17,"left_children":[1,3,5,7,-1,9,11,-1,-1,-1,-1,-1,-1],"loss_changes":[2.8942545E1,1.5974405E1,3.054575E1,1.1693916E1,0E0,2.3351381E1,6.1540985E0,0E0,0E0,0E0,0E0,0E0,0E0],"parents":[2147483647,0,0,1,1,2,2,3,3,5,5,6,6],"right_children":[2,4,6,8,-1,10,12,-1,-1,-1,-1,-1,-1],"split_conditions":[1.22890625E1,6.0264736E-1,1.4981995E1,2.995023E-1,2.7913886E-1,1.4759979E1,3.1558826E3,-9.8262616E-2,2.4473043E-1,4.729361E-3,1.2373835E-1,1.2728882E-2,-1.038998E-1],"split_indices":[5010,4024,5010,4427,0,5010,5011,0,0,0,0,0,0],"split_type":[0,0,0,0,0,0,0,0,0,0,0,0,0],"sum_hessian":[4.8854367E2,1.3818442E2,3.5035925E2,1.3425996E2,3.9244509E0,2.638575E2,8.6501724E1,1.3112227E2,3.1376894E0,1.2930464E2,1.3455289E2,2.473976E1,6.1761963E1],"tree_param":{"num_deleted":"0","num_feature":"5012","num_nodes":"13","size_leaf_vector":"1"}},{"base_weights":[1.0341229E-2,4.2071506E-1,-4.9945176E-1,1.0085472E0,1.1580221E-1,6.233623E-1,-1.10135354E-1,2.1035059E-1,1.3024168E-1,-7.611691E-2,9.418949E-2,2.5047976E-1,-9.23254E-2],"categories":[],"categories_nodes":[],"categories_segments":[],"categories_sizes":[],"default_left":[0,0,0,0,0,0,0,0,0,0,0,0,0],"id":18,"left_children":[1,3,5,7,9,11,-1,-1,-1,-1,-1,-1,-1],"loss_changes":[1.0083099E2,4.7652E1,1.2694241E1,5.4972076E-1,3.141621E1,7.317546E0,0E0,0E0,0E0,0E0,0E0,0E0,0E0],"parents":[2147483647,0,0,1,1,2,2,3,3,4,4,5,5],"right_children":[2,4,6,8,10,12,-1,-1,-1,-1,-1,-1,-1],"split_conditions":[1E0,1.0395667E3,9.3596E0,1.2E1,2.4E1,4.4853225E-1,-1.10135354E-1,2.1035059E-1,1.3024168E-1,-7.611691E-2,9.418949E-2,2.5047976E-1,-9.23254E-2],"split_indices":[5004,5011,5000,5000,5001,1439,0,0,0,0,0,0,0],"split_type":[0,0,0,0,0,0,0,0,0,0,0,0,0],"sum_hessian":[4.800038E2,2.6613834E2,2.1386548E2,8.9998116E1,1.7614021E2,8.758755E0,2.0510672E2,7.830691E1,1.1691204E1,7.331482E1,1.0282539E2,5.50502E0,3.2537346E0],"tree_param":{"num_deleted":"0","num_feature":"5012","num_nodes":"13","size_leaf_vector":"1"}},{"base_weights":[7.235615E-2,-4.2646724E-1,4.886934E-1,-4.657552E-1,3.0115315E-1,4.234245E-1,3.8818747E-1,-1.1633029E-1,5.0482064E-2,5.541426E-2,1.8778563E-1],"categories":[],"categories_nodes":[],"categories_segments":[],"categories_sizes":[],"default_left":[0,0,0,0,0,0,0,0,0,0,0],"id":19,"left_children":[1,3,5,7,-1,9,-1,-1,-1,-1,-1],"loss_changes":[1.0426578E2,1.7932552E1,2.4881355E1,1.8875408E1,0E0,1.9478462E1,0E0,0E0,0E0,0E0,0E0],"parents":[2147483647,0,0,1,1,2,2,3,3,5,5],"right_children":[2,4,6,8,-1,10,-1,-1,-1,-1,-1],"split_conditions":[3E0,8.368476E-1,2.1259454E-1,1.6654001E1,3.0115315E-1,1E0,3.8818747E-1,-1.1633029E-1,5.0482064E-2,5.541426E-2,1.8778563E-1],"split_indices":[5002,3346,3556,5010,0,5006,0,0,0,0,0],"split_type":[0,0,0,0,0,0,0,0,0,0,0],"sum_hessian":[5.0001965E2,2.2735536E2,2.726643E2,2.2361923E2,3.736123E0,2.622388E2,1.0425497E1,1.9283E2,3.0789236E1,2.055998E2,5.663902E1],"tree_param":{"num_deleted":"0","num_feature":"5012","num_nodes":"11","size_leaf_vector":"1"}},{"base_weights":[1.6169121E-2,-2.6182443E-2,9.7478646E-1,-1.16382E-1,3.490433E-2,1.2638717E0,-9.262897E-2,2.508168E-2,-7.602303E-2,3.4113365E-1,7.904652E-2],"categories":[],"categories_nodes":[],"categories_segments":[],"categories_sizes":[],"default_left":[0,0,0,0,0,0,0,0,0,0,0],"id":20,"left_children":[1,3,5,-1,7,9,-1,-1,-1,-1,-1],"loss_changes":[2.0611507E1,1.6513783E1,9.594782E0,0E0,1.6438723E1,6.1046295E0,0E0,0E0,0E0,0E0,0E0],"parents":[2147483647,0,0,1,1,2,2,4,4,5,5],"right_children":[2,4,6,-1,8,10,-1,-1,-1,-1,-1],"split_conditions":[3.084E1,9.96E0,4.7954475E1,-1.16382E-1,1.1666667E1,8.25E0,-9.262897E-2,2.508168E-2,-7.602303E-2,3.4113365E-1,7.904652E-2],"split_indices":[5010,5000,5000,0,5003,5003,0,0,0,0,0],"split_type":[0,0,0,0,0,0,0,0,0,0,0],"sum_hessian":[5.0372058E2,4.832395E2,2.0481075E1,4.717581E1,4.360637E2,1.721144E1,3.2696373E0,3.5876575E2,7.7297935E1,1.0693772E1,6.517666E0],"tree_param":{"num_deleted":"0","num_feature":"5012","num_nodes":"11","size_leaf_vector":"1"}},{"base_weights":[-1.5482264E-2,-3.398404E-1,7.276447E-1,-3.5421005E-1,1.457035E-1,8.2020026E-1,-8.116398E-2,-5.2801143E-2,-8.946197E-2,-8.983799E-2,1.7487156E-1],"categories":[],"categories_nodes":[],"categories_segments":[],"categories_sizes":[],"default_left":[0,0,0,0,0,0,0,0,0,0,0],"id":21,"left_children":[1,3,5,7,-1,9,-1,-1,-1,-1,-1],"loss_changes":[1.1249E2,5.21085E0,1.524675E1,2.5107956E0,0E0,9.473877E0,0E0,0E0,0E0,0E0,0E0],"parents":[2147483647,0,0,1,1,2,2,3,3,5,5],"right_children":[2,4,6,8,-1,10,-1,-1,-1,-1,-1],"split_conditions":[1.2E1,7.0686203E-1,1.0395667E3,2.1E1,1.457035E-1,1.1E1,-8.116398E-2,-5.2801143E-2,-8.946197E-2,-8.983799E-2,1.7487156E-1],"split_indices":[5003,2341,5011,5001,0,5000,0,0,0,0,0],"split_type":[0,0,0,0,0,0,0,0,0,0,0],"sum_hessian":[4.648224E2,3.2405637E2,1.4076604E2,3.2050754E2,3.5488348E0,1.304763E2,1.0289733E1,1.6527884E2,1.5522868E2,4.9648733E0,1.2551144E2],"tree_param":{"num_deleted":"0","num_feature":"5012","num_nodes":"11","size_leaf_vector":"1"}},{"base_weights":[1.2486232E-2,-4.155521E-1,1.3752769E-1,-2.9698727E-1,-1.161828E-1,2.7431315E-1,-3.3794537E-1,-8.089012E-2,2.8376473E-2,8.622794E-2,-5.470335E-2,-1.06271766E-1,-2.7140653E-2],"categories":[],"categories_nodes":[],"categories_segments":[],"categories_sizes":[],"default_left":[0,0,0,0,0,0,0,0,0,0,0,0,0],"id":22,"left_children":[1,3,5,7,-1,9,11,-1,-1,-1,-1,-1,-1],"loss_changes":[2.6206436E1,1.9089317E0,2.4764544E1,3.2358274E0,0E0,2.551167E1,3.1882963E0,0E0,0E0,0E0,0E0,0E0,0E0],"parents":[2147483647,0,0,1,1,2,2,3,3,5,5,6,6],"right_children":[2,4,6,8,-1,10,12,-1,-1,-1,-1,-1,-1],"split_conditions":[1.2164276E1,1.1E1,1.4981995E1,8.25E0,-1.161828E-1,1E1,1.9263718E1,-8.089012E-2,2.8376473E-2,8.622794E-2,-5.470335E-2,-1.06271766E-1,-2.7140653E-2],"split_indices":[5010,5000,5010,5003,0,5003,5010,0,0,0,0,0,0],"split_type":[0,0,0,0,0,0,0,0,0,0,0,0,0],"sum_hessian":[4.8808536E2,1.09641304E2,3.7844403E2,6.583685E1,4.3804455E1,2.9438727E2,8.405678E1,5.3132824E1,1.2704024E1,2.291767E2,6.521056E1,4.188164E1,4.2175137E1],"tree_param":{"num_deleted":"0","num_feature":"5012","num_nodes":"13","size_leaf_vector":"1"}},{"base_weights":[2.068311E-3,3.644105E-1,-4.8669314E-1,7.3461235E-1,2.1546306E-3,-5.25992E-2,-5.400541E-1,1.7204994E-1,-4.469468E-3,1.2940557E-1,-2.7056461E-2,2.5220305E-2,-8.174369E-2,-4.9618803E-2,-1.1040511E-1],"categories":[],"categories_nodes":[],"categories_segments":[],"categories_sizes":[],"default_left":[0,0,0,0,0,0,0,0,0,0,0,0,0,0,0],"id":23,"left_children":[1,3,5,7,9,11,13,-1,-1,-1,-1,-1,-1,-1,-1],"loss_changes":[8.539153E1,3.7079014E1,4.6652412E0,1.3120789E1,1.2650176E1,1.5927943E0,4.206009E-1,0E0,0E0,0E0,0E0,0E0,0E0,0E0,0E0],"parents":[2147483647,0,0,1,1,2,2,3,3,4,4,5,5,6,6],"right_children":[2,4,6,8,10,12,14,-1,-1,-1,-1,-1,-1,-1,-1],"split_conditions":[1E0,6.4E0,1.2E1,1E0,1.0565281E1,5E0,3.8432E1,1.7204994E-1,-4.469468E-3,1.2940557E-1,-2.7056461E-2,2.5220305E-2,-8.174369E-2,-4.9618803E-2,-1.1040511E-1],"split_indices":[5004,5003,5010,5007,5010,5002,5009,0,0,0,0,0,0,0,0],"split_type":[0,0,0,0,0,0,0,0,0,0,0,0,0,0,0],"sum_hessian":[4.8023624E2,2.7604782E2,2.041884E2,1.3588168E2,1.4016614E2,2.2774702E1,1.814137E2,1.16535255E2,1.9346432E1,2.4100945E1,1.160652E2,1.540804E1,7.366662E0,8.330366E0,1.7308334E2],"tree_param":{"num_deleted":"0","num_feature":"5012","num_nodes":"15","size_leaf_vector":"1"}},{"base_weights":[-2.9336785E-3,-5.380355E-1,3.771392E-1,-1.1636537E-1,2.2114424E-1,1.9880255E-1,8.690474E-1,2.7169889E-2,3.2582033E-1,8.35197E-2,2.1481045E-1],"categories":[],"categories_nodes":[],"categories_segments":[],"categories_sizes":[],"default_left":[0,0,0,0,0,0,0,0,0,0,0],"id":24,"left_children":[1,3,5,-1,-1,7,9,-1,-1,-1,-1],"loss_changes":[9.866507E1,1.5098984E1,2.459103E1,0E0,0E0,1.8467468E1,6.342434E0,0E0,0E0,0E0,0E0],"parents":[2147483647,0,0,1,1,2,2,5,5,6,6],"right_children":[2,4,6,-1,-1,8,10,-1,-1,-1,-1],"split_conditions":[2E1,4.463569E-1,1E0,-1.1636537E-1,2.2114424E-1,2.0456359E-1,1.3391998E1,2.7169889E-2,3.2582033E-1,8.35197E-2,2.1481045E-1],"split_indices":[5001,4185,5006,0,0,2613,5010,0,0,0,0],"split_type":[0,0,0,0,0,0,0,0,0,0,0],"sum_hessian":[4.830553E2,2.0054996E2,2.8250534E2,1.9603429E2,4.515678E0,2.0851692E2,7.398841E1,2.0084196E2,7.6749516E0,2.4206715E1,4.9781696E1],"tree_param":{"num_deleted":"0","num_feature":"5012","num_nodes":"11","size_leaf_vector":"1"}},{"base_weights":[7.5248773E-3,-1.9196454E-1,1.7877829E-1,-2.1731125E-1,2.5650868E-1,3.365755E-1,-3.6353964E-1,-8.837181E-2,-1.581166E-2,1.396629E-1,1.7795358E-2,1.595225E-2,-8.05614E-2],"categories":[],"categories_nodes":[],"categories_segments":[],"categories_sizes":[],"default_left":[0,0,0,0,0,0,0,0,0,0,0,0,0],"id":25,"left_children":[1,3,5,7,-1,9,11,-1,-1,-1,-1,-1,-1],"loss_changes":[1.7210157E1,8.860283E0,2.3339275E1,7.0363407E0,0E0,1.8743216E1,1.1348553E0,0E0,0E0,0E0,0E0,0E0,0E0],"parents":[2147483647,0,0,1,1,2,2,3,3,5,5,6,6],"right_children":[2,4,6,8,-1,10,12,-1,-1,-1,-1,-1,-1],"split_conditions":[1E0,2.9949316E-1,1.1666667E1,1.05E1,2.5650868E-1,1.4024963E1,1E0,-8.837181E-2,-1.581166E-2,1.396629E-1,1.7795358E-2,1.595225E-2,-8.05614E-2],"split_indices":[5004,4069,5003,5000,0,5010,5007,0,0,0,0,0,0],"split_type":[0,0,0,0,0,0,0,0,0,0,0,0,0],"sum_hessian":[5.0179648E2,2.3146408E2,2.703324E2,2.2845735E2,3.0067284E0,2.0983955E2,6.049285E1,8.594606E1,1.4251129E2,8.4362564E1,1.2547699E2,4.631263E0,5.5861588E1],"tree_param":{"num_deleted":"0","num_feature":"5012","num_nodes":"13","size_leaf_vector":"1"}},{"base_weights":[-1.9529173E-2,-3.1565884E-1,6.494804E-1,-3.3283374E-1,1.9525151E-1,7.3973215E-1,-3.2341188E-1,-3.930853E-2,-7.483256E-2,8.268814E-3,1.5243885E-1,-8.666836E-2,-1.4857049E-2],"categories":[],"categories_nodes":[],"categories_segments":[],"categories_sizes":[],"default_left":[0,0,0,0,0,0,0,0,0,0,0,0,0],"id":26,"left_children":[1,3,5,7,-1,9,11,-1,-1,-1,-1,-1,-1],"loss_changes":[8.563217E1,6.912531E0,1.1922031E1,1.540535E0,0E0,1.7976379E0,2.4175608E-1,0E0,0E0,0E0,0E0,0E0,0E0],"parents":[2147483647,0,0,1,1,2,2,3,3,5,5,6,6],"right_children":[2,4,6,8,-1,10,12,-1,-1,-1,-1,-1,-1],"split_conditions":[1.2E1,1E0,7.391754E1,2E0,1.9525151E-1,5.948401E1,1.3E1,-3.930853E-2,-7.483256E-2,8.268814E-3,1.5243885E-1,-8.666836E-2,-1.4857049E-2],"split_indices":[5003,2341,5009,5002,0,5009,5003,0,0,0,0,0,0],"split_type":[0,0,0,0,0,0,0,0,0,0,0,0,0],"sum_hessian":[4.3037146E2,2.9879208E2,1.3157936E2,2.9568106E2,3.1110444E0,1.2072278E2,1.0856576E1,7.0701935E1,2.2497911E2,3.989029E0,1.1673375E2,6.741131E0,4.1154456E0],"tree_param":{"num_deleted":"0","num_feature":"5012","num_nodes":"13","size_leaf_vector":"1"}},{"base_weights":[3.1167831E-2,-5.1000277E-3,2.3944436E-1,-2.2418512E-1,2.5201017E-1,-7.809284E-2,-4.0029743E-4,1.00231126E-1,-6.4344935E-2],"categories":[],"categories_nodes":[],"categories_segments":[],"categories_sizes":[],"default_left":[0,0,0,0,0,0,0,0,0],"id":27,"left_children":[1,3,-1,5,7,-1,-1,-1,-1],"loss_changes":[2.059264E1,2.6544455E1,0E0,9.368212E0,3.11446E1,0E0,0E0,0E0,0E0],"parents":[2147483647,0,0,1,1,3,3,4,4],"right_children":[2,4,-1,6,8,-1,-1,-1,-1],"split_conditions":[2.5693467E-1,1E0,2.3944436E-1,1.4024963E1,1.1666667E1,-7.809284E-2,-4.0029743E-4,1.00231126E-1,-6.4344935E-2],"split_indices":[2724,5007,0,5010,5003,0,0,0,0],"split_type":[0,0,0,0,0,0,0,0,0],"sum_hessian":[4.8297226E2,4.692859E2,1.3686366E1,2.5365877E2,2.1562712E2,1.4439107E2,1.0926769E2,1.505509E2,6.507622E1],"tree_param":{"num_deleted":"0","num_feature":"5012","num_nodes":"9","size_leaf_vector":"1"}},{"base_weights":[4.786576E-3,6.3340056E-1,-1.5805118E-1,7.290605E-1,-0E0,-3.283155E-1,2.2355811E-1,1.7054717E-1,1.1521733E-1,4.957915E-2,-3.39034E-2,-7.779134E-2,1.429743E-2,2.5063705E-1,2.5589943E-2],"categories":[],"categories_nodes":[],"categories_segments":[],"categories_sizes":[],"default_left":[0,0,0,0,0,0,0,0,0,0,0,0,0,0,0],"id":28,"left_children":[1,3,5,7,9,11,13,-1,-1,-1,-1,-1,-1,-1,-1],"loss_changes":[4.688398E1,5.690029E0,2.368996E1,9.14505E-1,6.078298E-1,6.164564E0,1.0776485E1,0E0,0E0,0E0,0E0,0E0,0E0,0E0,0E0],"parents":[2147483647,0,0,1,1,2,2,3,3,4,4,5,5,6,6],"right_children":[2,4,6,8,10,12,14,-1,-1,-1,-1,-1,-1,-1,-1],"split_conditions":[5.4531824E2,1.2E1,6E0,1.1142242E1,3E0,1E0,2.1765186E3,1.7054717E-1,1.1521733E-1,4.957915E-2,-3.39034E-2,-7.779134E-2,1.429743E-2,2.5063705E-1,2.5589943E-2],"split_indices":[5011,5000,5002,5009,5003,5008,5011,0,0,0,0,0,0,0,0],"split_type":[0,0,0,0,0,0,0,0,0,0,0,0,0,0,0],"sum_hessian":[4.5557855E2,9.32651E1,3.6231345E2,8.0855965E1,1.2409136E1,2.5081009E2,1.1150336E2,4.1818623E1,3.9037342E1,4.9226975E0,7.4864388E0,2.1801874E2,3.2791348E1,8.356544E0,1.0314681E2],"tree_param":{"num_deleted":"0","num_feature":"5012","num_nodes":"15","size_leaf_vector":"1"}},{"base_weights":[-5.679967E-2,-4.7427353E-1,2.2991298E-1,-1.13818206E-1,7.549194E-1,3.0323708E-1,-1.17215596E-1,6.7378126E-2,2.722774E-1,4.8426952E-2,2.4559548E-1],"categories":[],"categories_nodes":[],"categories_segments":[],"categories_sizes":[],"default_left":[0,0,0,0,0,0,0,0,0,0,0],"id":29,"left_children":[1,3,5,-1,7,9,-1,-1,-1,-1,-1],"loss_changes":[5.3267555E1,2.1530796E1,1.5927255E1,0E0,2.75132E0,1.3270927E1,0E0,0E0,0E0,0E0,0E0],"parents":[2147483647,0,0,1,1,2,2,4,4,5,5],"right_children":[2,4,6,-1,8,10,-1,-1,-1,-1,-1],"split_conditions":[3E0,2.202E1,1.3E1,-1.13818206E-1,3.9079997E-1,1.8503843E-1,-1.17215596E-1,6.7378126E-2,2.722774E-1,4.8426952E-2,2.4559548E-1],"split_indices":[5002,5000,5002,0,3738,1797,0,0,0,0,0],"split_type":[0,0,0,0,0,0,0,0,0,0,0],"sum_hessian":[4.4291214E2,1.8020929E2,2.6270285E2,1.678779E2,1.2331392E1,2.4173198E2,2.0970854E1,8.318182E0,4.0132103E0,2.2803456E2,1.3697432E1],"tree_param":{"num_deleted":"0","num_feature":"5012","num_nodes":"11","size_leaf_vector":"1"}},{"base_weights":[1.7207587E-2,-1.5069839E-2,7.9631984E-1,3.3101767E-2,-4.4712985E-1,1.0883627E0,-9.3214735E-2,1.9731035E-2,-6.913859E-2,-1.026057E-1,5.9540607E-2,2.9631343E-1,-8.938002E-2],"categories":[],"categories_nodes":[],"categories_segments":[],"categories_sizes":[],"default_left":[0,0,0,0,0,0,0,0,0,0,0,0,0],"id":30,"left_children":[1,3,5,7,9,11,-1,-1,-1,-1,-1,-1,-1],"loss_changes":[1.2623754E1,1.0034621E1,7.931288E0,1.0738077E1,2.548356E0,1.077503E1,0E0,0E0,0E0,0E0,0E0,0E0,0E0],"parents":[2147483647,0,0,1,1,2,2,3,3,4,4,5,5],"right_children":[2,4,6,8,10,12,-1,-1,-1,-1,-1,-1,-1],"split_conditions":[2.202E1,6.7E1,4.3E1,1.1666667E1,8.25E0,2.3201747E-1,-9.3214735E-2,1.9731035E-2,-6.913859E-2,-1.026057E-1,5.9540607E-2,2.9631343E-1,-8.938002E-2],"split_indices":[5000,5001,5001,5003,5003,4115,0,0,0,0,0,0,0],"split_type":[0,0,0,0,0,0,0,0,0,0,0,0,0],"sum_hessian":[4.973998E2,4.7843143E2,1.8968374E1,4.3106293E2,4.73685E1,1.5580941E1,3.3874323E0,3.6832495E2,6.273798E1,4.3927513E1,3.4409852E0,1.24837675E1,3.097174E0],"tree_param":{"num_deleted":"0","num_feature":"5012","num_nodes":"13","size_leaf_vector":"1"}},{"base_weights":[-3.819859E-2,-3.0001172E-1,5.480114E-1,-3.189673E-1,1.7770867E-1,-7.3022954E-2,6.082202E-1,-4.4503823E-2,-8.273053E-2,9.34574E-2,1.5097497E-1],"categories":[],"categories_nodes":[],"categories_segments":[],"categories_sizes":[],"default_left":[0,0,0,0,0,0,0,0,0,0,0],"id":31,"left_children":[1,3,5,7,-1,-1,9,-1,-1,-1,-1],"loss_changes":[6.457355E1,6.7820854E0,7.38533E0,2.4673595E0,0E0,0E0,2.0527115E0,0E0,0E0,0E0,0E0],"parents":[2147483647,0,0,1,1,2,2,3,3,6,6],"right_children":[2,4,6,8,-1,-1,10,-1,-1,-1,-1],"split_conditions":[1.2E1,1E0,1E0,1.36026E1,1.7770867E-1,-7.3022954E-2,1.6348034E-1,-4.4503823E-2,-8.273053E-2,9.34574E-2,1.5097497E-1],"split_indices":[5003,2341,5004,5010,0,0,2516,0,0,0,0],"split_type":[0,0,0,0,0,0,0,0,0,0,0],"sum_hessian":[4.1882666E2,2.8997626E2,1.288504E2,2.8622714E2,3.7491028E0,7.554463E0,1.2129594E2,1.4397641E2,1.4225073E2,6.433705E1,5.6958885E1],"tree_param":{"num_deleted":"0","num_feature":"5012","num_nodes":"11","size_leaf_vector":"1"}},{"base_weights":[5.302582E-2,-1.4899525E-1,2.3591797E-1,-1.9851822E-1,2.4133943E-1,4.8054007E-1,-2.9955086E-1,-4.6413448E-2,2.0830436E-1,1.5777956E-1,-5.4894757E-2,-1.1496259E-1,-1.2059031E-2],"categories":[],"categories_nodes":[],"categories_segments":[],"categories_sizes":[],"default_left":[0,0,0,0,0,0,0,0,0,0,0,0,0],"id":32,"left_children":[1,3,5,7,-1,9,11,-1,-1,-1,-1,-1,-1],"loss_changes":[1.6755716E1,1.4591351E1,3.134225E1,8.839417E0,0E0,3.8427856E1,4.8499165E0,0E0,0E0,0E0,0E0,0E0,0E0],"parents":[2147483647,0,0,1,1,2,2,3,3,5,5,6,6],"right_children":[2,4,6,8,-1,10,12,-1,-1,-1,-1,-1,-1],"split_conditions":[1.4024963E1,2.9008973E-1,1.4981995E1,6.0264736E-1,2.4133943E-1,9.333333E0,1.9263718E1,-4.6413448E-2,2.0830436E-1,1.5777956E-1,-5.4894757E-2,-1.1496259E-1,-1.2059031E-2],"split_indices":[5010,223,5010,4024,0,5003,5010,0,0,0,0,0,0],"split_type":[0,0,0,0,0,0,0,0,0,0,0,0,0],"sum_hessian":[4.513071E2,2.1426758E2,2.3703952E2,2.0761096E2,6.656627E0,1.629069E2,7.4132614E1,2.0301201E2,4.59895E0,1.1572916E2,4.7177753E1,3.362584E1,4.050677E1],"tree_param":{"num_deleted":"0","num_feature":"5012","num_nodes":"13","size_leaf_vector":"1"}},{"base_weights":[-2.6022417E-2,5.197806E-1,-1.6656911E-1,5.9993637E-1,2.4255216E-1,7.666286E-2,-4.2441088E-1,1.07485734E-1,1.6123939E-1,1.8717214E-2,1.2812768E-1,-4.5686852E-2,1.3775538E-1,-8.927064E-2,1.2609266E-2],"categories":[],"categories_nodes":[],"categories_segments":[],"categories_sizes":[],"default_left":[0,0,0,0,0,0,0,0,0,0,0,0,0,0,0],"id":33,"left_children":[1,3,5,7,9,11,13,-1,-1,-1,-1,-1,-1,-1,-1],"loss_changes":[3.530415E1,1.8635445E0,2.3043308E1,3.6214256E-1,1.2356884E0,3.5530754E1,1.9723625E0,0E0,0E0,0E0,0E0,0E0,0E0,0E0,0E0],"parents":[2147483647,0,0,1,1,2,2,3,3,4,4,5,5,6,6],"right_children":[2,4,6,8,10,12,14,-1,-1,-1,-1,-1,-1,-1,-1],"split_conditions":[5.4531824E2,2.8859677E2,1.4024963E1,1.4183998E1,1E1,3.7E1,8.6E1,1.07485734E-1,1.6123939E-1,1.8717214E-2,1.2812768E-1,-4.5686852E-2,1.3775538E-1,-8.927064E-2,1.2609266E-2],"split_indices":[5011,5011,5010,5010,5001,5001,5001,0,0,0,0,0,0,0,0],"split_type":[0,0,0,0,0,0,0,0,0,0,0,0,0,0,0],"sum_hessian":[4.585557E2,9.320213E1,3.6535358E2,7.111555E1,2.2086588E1,1.8816508E2,1.7718848E2,5.7715225E1,1.3400319E1,1.7153822E1,4.9327645E0,1.2588396E2,6.228113E1,1.6983311E2,7.3553667E0],"tree_param":{"num_deleted":"0","num_feature":"5012","num_nodes":"15","size_leaf_vector":"1"}},{"base_weights":[1.2451088E-2,-4.1568187E-1,2.7630982E-1,-5.090582E-1,7.231311E-1,2.1470055E-1,1.078943E0,-1.1302062E-1,2.4801974E-1,7.474439E-2,2.3089169E-1,3.4610134E-2,2.5347412E-1,2.912342E-1,1.3415189E-1],"categories":[],"categories_nodes":[],"categories_segments":[],"categories_sizes":[],"default_left":[0,0,0,0,0,0,0,0,0,0,0,0,0,0,0],"id":34,"left_children":[1,3,5,7,9,11,13,-1,-1,-1,-1,-1,-1,-1,-1],"loss_changes":[5.1397953E1,1.8785833E1,1.35684185E1,1.6409328E1,1.4461622E0,1.1166305E1,1.8465023E0,0E0,0E0,0E0,0E0,0E0,0E0,0E0,0E0],"parents":[2147483647,0,0,1,1,2,2,3,3,4,4,5,5,6,6],"right_children":[2,4,6,8,10,12,14,-1,-1,-1,-1,-1,-1,-1,-1],"split_conditions":[2.1E1,2.202E1,2.4892315E-1,1E0,3.9079997E-1,6.1383843E-1,3.4E1,-1.1302062E-1,2.4801974E-1,7.474439E-2,2.3089169E-1,3.4610134E-2,2.5347412E-1,2.912342E-1,1.3415189E-1],"split_indices":[5001,5000,1424,3829,3738,1210,5001,0,0,0,0,0,0,0,0],"split_type":[0,0,0,0,0,0,0,0,0,0,0,0,0,0,0],"sum_hessian":[4.5309015E2,1.7240088E2,2.8068927E2,1.5992844E2,1.2472436E1,2.6197263E2,1.8716658E1,1.5567455E2,4.2538877E0,8.049772E0,4.4226637E0,2.532134E2,8.759239E0,8.265533E0,1.0451124E1],"tree_param":{"num_deleted":"0","num_feature":"5012","num_nodes":"15","size_leaf_vector":"1"}},{"base_weights":[-9.224196E-3,-2.6127188E-2,3.4708205E-1,4.6979874E-2,-3.518336E-1,6.2221014E-3,2.913762E-1,-7.4605994E-2,-0E0],"categories":[],"categories_nodes":[],"categories_segments":[],"categories_sizes":[],"default_left":[0,0,0,0,0,0,0,0,0],"id":35,"left_children":[1,3,-1,5,7,-1,-1,-1,-1],"loss_changes":[1.4643874E1,1.1883048E1,0E0,8.902919E0,6.7172813E-1,0E0,0E0,0E0,0E0],"parents":[2147483647,0,0,1,1,3,3,4,4],"right_children":[2,4,-1,6,8,-1,-1,-1,-1],"split_conditions":[3.8182992E-1,7E0,3.4708205E-1,1E0,2.7261987E-1,6.2221014E-3,2.913762E-1,-7.4605994E-2,-0E0],"split_indices":[2491,5002,0,2582,1981,0,0,0,0],"split_type":[0,0,0,0,0,0,0,0,0],"sum_hessian":[4.9983725E2,4.9607336E2,3.763893E0,4.055856E2,9.048776E1,4.021521E2,3.4334955E0,8.5213425E1,5.2743397E0],"tree_param":{"num_deleted":"0","num_feature":"5012","num_nodes":"9","size_leaf_vector":"1"}},{"base_weights":[-4.824476E-2,2.6750952E-1,-3.4292436E-1,-3.173514E-1,4.5487383E-1,-2.4853967E-1,-8.538628E-2,-8.242313E-2,-3.1922653E-2,5.9657183E-2,1.4610296E-1,-6.202033E-2,7.5814435E-3],"categories":[],"categories_nodes":[],"categories_segments":[],"categories_sizes":[],"default_left":[0,0,0,0,0,0,0,0,0,0,0,0,0],"id":36,"left_children":[1,3,5,7,9,11,-1,-1,-1,-1,-1,-1,-1],"loss_changes":[3.6673214E1,2.0995012E1,1.4432449E0,5.735493E-1,5.9184475E0,1.7844834E0,0E0,0E0,0E0,0E0,0E0,0E0,0E0],"parents":[2147483647,0,0,1,1,2,2,3,3,4,4,5,5],"right_children":[2,4,6,8,10,12,-1,-1,-1,-1,-1,-1,-1],"split_conditions":[2E0,7.0631995E2,4E0,1E0,1E0,4.227207E3,-8.538628E-2,-8.242313E-2,-3.1922653E-2,5.9657183E-2,1.4610296E-1,-6.202033E-2,7.5814435E-3],"split_indices":[5002,5011,5002,5008,2543,5011,0,0,0,0,0,0,0],"split_type":[0,0,0,0,0,0,0,0,0,0,0,0,0],"sum_hessian":[3.9207227E2,1.8914885E2,2.029234E2,4.5595192E1,1.4355365E2,9.798406E1,1.0493935E2,2.707984E1,1.8515354E1,9.310621E1,5.0447445E1,8.087028E1,1.7113785E1],"tree_param":{"num_deleted":"0","num_feature":"5012","num_nodes":"13","size_leaf_vector":"1"}},{"base_weights":[-7.11779E-3,5.2421905E-2,-5.2789646E-1,3.312675E-2,2.6842675E-1,-1.1532743E-1,-1.7737545E-2,-7.629151E-5,1.4582376E-1],"categories":[],"categories_nodes":[],"categories_segments":[],"categories_sizes":[],"default_left":[0,0,0,0,0,0,0,0,0],"id":37,"left_children":[1,3,5,7,-1,-1,-1,-1,-1],"loss_changes":[1.4761541E1,1.0413813E1,9.282427E-1,9.882453E0,0E0,0E0,0E0,0E0,0E0],"parents":[2147483647,0,0,1,1,2,2,3,3],"right_children":[2,4,6,8,-1,-1,-1,-1,-1],"split_conditions":[1E0,2.711697E-1,2.0749627E-1,5.9640056E-1,2.6842675E-1,-1.1532743E-1,-1.7737545E-2,-7.629151E-5,1.4582376E-1],"split_indices":[5006,3080,2507,480,0,0,0,0,0],"split_type":[0,0,0,0,0,0,0,0,0],"sum_hessian":[4.7264526E2,4.247874E2,4.785787E1,4.1961288E2,5.1745334E0,4.259082E1,5.2670493E0,4.011552E2,1.8457655E1],"tree_param":{"num_deleted":"0","num_feature":"5012","num_nodes":"9","size_leaf_vector":"1"}},{"base_weights":[-2.2119706E-2,2.5630903E-1,-2.754508E-1,5.8325607E-1,3.4092482E-2,-1.2524313E-1,-4.8238316E-1,9.182491E-2,1.572935E-1,-5.0431725E-2,1.0459745E-1,-5.6672152E-2,4.890138E-3,-9.974935E-2,-9.2034E-3],"categories":[],"categories_nodes":[],"categories_segments":[],"categories_sizes":[],"default_left":[0,0,0,0,0,0,0,0,0,0,0,0,0,0,0],"id":38,"left_children":[1,3,5,7,9,11,13,-1,-1,-1,-1,-1,-1,-1,-1],"loss_changes":[3.0774399E1,1.5008051E1,6.983694E0,1.6281681E0,1.7637777E1,3.2062166E0,6.0453796E-1,0E0,0E0,0E0,0E0,0E0,0E0,0E0,0E0],"parents":[2147483647,0,0,1,1,2,2,3,3,4,4,5,5,6,6],"right_children":[2,4,6,8,10,12,14,-1,-1,-1,-1,-1,-1,-1,-1],"split_conditions":[1.2E1,7.0631995E2,8E0,1.10133095E1,3.7E1,2.4E1,5.1E1,9.182491E-2,1.572935E-1,-5.0431725E-2,1.0459745E-1,-5.6672152E-2,4.890138E-3,-9.974935E-2,-9.2034E-3],"split_indices":[5000,5011,5003,5010,5001,5001,5001,0,0,0,0,0,0,0,0],"split_type":[0,0,0,0,0,0,0,0,0,0,0,0,0,0,0],"sum_hessian":[4.342737E2,2.0669493E2,2.275788E2,8.279863E1,1.2389629E2,1.3307271E2,9.450609E1,5.3729473E1,2.906916E1,7.8319435E1,4.557686E1,6.4606094E1,6.846661E1,9.073157E1,3.774517E0],"tree_param":{"num_deleted":"0","num_feature":"5012","num_nodes":"15","size_leaf_vector":"1"}},{"base_weights":[4.569807E-2,-1.09291516E-1,2.1509004E-1,1.6590004E-1,2.654797E-1,6.4758556E-3,1.2317574E-1],"categories":[],"categories_nodes":[],"categories_segments":[],"categories_sizes":[],"default_left":[0,0,0,0,0,0,0],"id":39,"left_children":[1,-1,3,5,-1,-1,-1],"loss_changes":[4.3747704E1,0E0,1.8196379E1,1.9512756E1,0E0,0E0,0E0],"parents":[2147483647,0,0,2,2,3,3],"right_children":[2,-1,4,6,-1,-1,-1],"split_conditions":[9.2709625E1,-1.09291516E-1,5.223165E-1,1E0,2.654797E-1,6.4758556E-3,1.2317574E-1],"split_indices":[5009,0,1205,5006,0,0,0],"split_type":[0,0,0,0,0,0,0],"sum_hessian":[4.3429916E2,9.597525E1,3.383239E2,3.251823E2,1.3141598E1,2.5176968E2,7.341264E1],"tree_param":{"num_deleted":"0","num_feature":"5012","num_nodes":"7","size_leaf_vector":"1"}},{"base_weights":[1.2663885E-2,6.0602356E-2,-4.2623568E-1,1.2549855E-1,-3.7553257E-1,-5.1266003E-2,-1.0422428E-1,-1.00663446E-1,3.5635874E-2,3.8081974E-2,-9.476222E-2,3.0024175E-2,-8.77898E-2],"categories":[],"categories_nodes":[],"categories_segments":[],"categories_sizes":[],"default_left":[0,0,0,0,0,0,0,0,0,0,0,0,0],"id":40,"left_children":[1,3,5,7,9,11,-1,-1,-1,-1,-1,-1,-1],"loss_changes":[1.0188458E1,1.2421792E1,1.6114597E0,1.27214775E1,3.277523E0,9.493056E-1,0E0,0E0,0E0,0E0,0E0,0E0,0E0],"parents":[2147483647,0,0,1,1,2,2,3,3,4,4,5,5],"right_children":[2,4,6,8,10,12,-1,-1,-1,-1,-1,-1,-1],"split_conditions":[1E1,1.1666667E1,6.7E1,9.3596E0,1.104E1,6.5E0,-1.0422428E-1,-1.00663446E-1,3.5635874E-2,3.8081974E-2,-9.476222E-2,3.0024175E-2,-8.77898E-2],"split_indices":[5002,5003,5001,5000,5000,5003,0,0,0,0,0,0,0],"split_type":[0,0,0,0,0,0,0,0,0,0,0,0,0],"sum_hessian":[4.837484E2,4.3709665E2,4.6651783E1,3.8130115E2,5.5795483E1,9.945059E0,3.6706726E1,2.8667229E1,3.5263394E2,7.966274E0,4.782921E1,6.7786393E0,3.1664193E0],"tree_param":{"num_deleted":"0","num_feature":"5012","num_nodes":"13","size_leaf_vector":"1"}},{"base_weights":[-2.962218E-2,2.7000007E-1,-3.1668273E-1,-2.6331973E-1,4.6892783E-1,-2.361024E-1,-3.666131E-1,-9.959631E-2,-3.1987768E-2,1.111997E-1,2.608488E-2,-1.9651277E-2,-7.366142E-2,-8.79962E-2,-6.317548E-2],"categories":[],"categories_nodes":[],"categories_segments":[],"categories_sizes":[],"default_left":[0,0,0,0,0,0,0,0,0,0,0,0,0,0,0],"id":41,"left_children":[1,3,5,7,9,11,13,-1,-1,-1,-1,-1,-1,-1,-1],"loss_changes":[3.1799616E1,1.9321121E1,6.132488E-1,1.0580795E0,3.7537575E0,1.2994251E0,2.1002483E-1,0E0,0E0,0E0,0E0,0E0,0E0,0E0,0E0],"parents":[2147483647,0,0,1,1,2,2,3,3,4,4,5,5,6,6],"right_children":[2,4,6,8,10,12,14,-1,-1,-1,-1,-1,-1,-1,-1],"split_conditions":[2E0,5.948401E1,2.1E1,1.1142242E1,7.391754E1,1E0,1.91315E2,-9.959631E-2,-3.1987768E-2,1.111997E-1,2.608488E-2,-1.9651277E-2,-7.366142E-2,-8.79962E-2,-6.317548E-2],"split_indices":[5002,5009,5001,5009,5009,5004,5009,0,0,0,0,0,0,0,0],"split_type":[0,0,0,0,0,0,0,0,0,0,0,0,0,0,0],"sum_hessian":[3.6767273E2,1.797588E2,1.8791394E2,4.8610092E1,1.3114871E2,7.484937E1,1.1306456E2,1.3402908E1,3.5207188E1,1.0357019E2,2.757852E1,3.7866585E1,3.6982788E1,4.228054E1,7.078402E1],"tree_param":{"num_deleted":"0","num_feature":"5012","num_nodes":"15","size_leaf_vector":"1"}},{"base_weights":[-2.5843497E-2,-5.642118E-2,1.8553953E-1,-2.0946214E-1,1.2605655E-1,-4.6625357E-2,2.3847552E-1,6.5483935E-2,-5.334715E-2],"categories":[],"categories_nodes":[],"categories_segments":[],"categories_sizes":[],"default_left":[0,0,0,0,0,0,0,0,0],"id":42,"left_children":[1,3,-1,5,7,-1,-1,-1,-1],"loss_changes":[1.3297289E1,1.2436571E1,0E0,8.216752E0,1.6140665E1,0E0,0E0,0E0,0E0],"parents":[2147483647,0,0,1,1,3,3,4,4],"right_children":[2,4,-1,6,8,-1,-1,-1,-1],"split_conditions":[2.5693467E-1,1E0,1.8553953E-1,3.2919753E-1,9.333333E0,-4.6625357E-2,2.3847552E-1,6.5483935E-2,-5.334715E-2],"split_indices":[2724,5007,0,602,5003,0,0,0,0],"split_type":[0,0,0,0,0,0,0,0,0],"sum_hessian":[4.5625006E2,4.4308707E2,1.3162993E1,2.411983E2,2.0188876E2,2.3808421E2,3.114101E0,1.3374568E2,6.8143074E1],"tree_param":{"num_deleted":"0","num_feature":"5012","num_nodes":"9","size_leaf_vector":"1"}},{"base_weights":[-9.550599E-3,2.4965261E-1,-4.465375E-1,4.416118E-1,-8.2455315E-2,7.2565414E-2,-4.7270104E-1,1.1712339E-1,-7.3370053E-3,-9.93903E-2,4.6563696E-2,-6.0714595E-3,-9.731384E-2],"categories":[],"categories_nodes":[],"categories_segments":[],"categories_sizes":[],"default_left":[0,0,0,0,0,0,0,0,0,0,0,0,0],"id":43,"left_children":[1,3,5,7,9,-1,11,-1,-1,-1,-1,-1,-1],"loss_changes":[4.8817482E1,1.7304E1,3.5819702E0,1.1898319E1,1.3165369E1,0E0,8.909035E-1,0E0,0E0,0E0,0E0,0E0,0E0],"parents":[2147483647,0,0,1,1,2,2,3,3,4,4,6,6],"right_children":[2,4,6,8,10,-1,12,-1,-1,-1,-1,-1,-1],"split_conditions":[1E0,3.2075092E2,9.959991E0,1E0,6E0,7.2565414E-2,2.2794617E1,1.1712339E-1,-7.3370053E-3,-9.93903E-2,4.6563696E-2,-6.0714595E-3,-9.731384E-2],"split_indices":[5004,5009,5010,5007,5002,0,5009,0,0,0,0,0,0],"split_type":[0,0,0,0,0,0,0,0,0,0,0,0,0],"sum_hessian":[4.288314E2,2.6929575E2,1.5953564E2,1.7063797E2,9.8657776E1,4.473047E0,1.5506259E2,1.3113936E2,3.949861E1,4.2510017E1,5.614776E1,5.029814E0,1.5003279E2],"tree_param":{"num_deleted":"0","num_feature":"5012","num_nodes":"13","size_leaf_vector":"1"}},{"base_weights":[-1.783978E-3,-1.1015977E-1,1.8461655E-1,1.373975E-1,2.2218576E-1,2.264671E-2,3.4583E-1],"categories":[],"categories_nodes":[],"categories_segments":[],"categories_sizes":[],"default_left":[0,0,0,0,0,0,0],"id":44,"left_children":[1,-1,3,5,-1,-1,-1],"loss_changes":[4.3117954E1,0E0,1.3463134E1,1.1164745E1,0E0,0E0,0E0],"parents":[2147483647,0,0,2,2,3,3],"right_children":[2,-1,4,6,-1,-1,-1],"split_conditions":[1.0613999E2,-1.1015977E-1,5.223165E-1,3.0729708E-1,2.2218576E-1,2.264671E-2,3.4583E-1],"split_indices":[5009,0,1205,1770,0,0,0],"split_type":[0,0,0,0,0,0,0],"sum_hessian":[4.1898288E2,1.058371E2,3.1314578E2,2.9915268E2,1.3993118E1,2.9579623E2,3.3564389E0],"tree_param":{"num_deleted":"0","num_feature":"5012","num_nodes":"7","size_leaf_vector":"1"}},{"base_weights":[1.7732179E-2,-1.7855468E-1,1.787418E-1,-2.140452E-1,2.8945833E-1,5.172985E-1,-1.16281055E-1,-5.2985E-2,8.710393E-2,1.2203505E-1,-5.9111226E-2,-8.458018E-2,9.310584E-3],"categories":[],"categories_nodes":[],"categories_segments":[],"categories_sizes":[],"default_left":[0,0,0,0,0,0,0,0,0,0,0,0,0],"id":45,"left_children":[1,3,5,7,-1,9,11,-1,-1,-1,-1,-1,-1],"loss_changes":[1.4496722E1,1.2100189E1,2.5292282E1,6.8070917E0,0E0,9.104036E0,6.819223E0,0E0,0E0,0E0,0E0,0E0,0E0],"parents":[2147483647,0,0,1,1,2,2,3,3,5,5,6,6],"right_children":[2,4,6,8,-1,10,12,-1,-1,-1,-1,-1,-1],"split_conditions":[1E0,2.7261987E-1,1.4759979E1,1E0,2.8945833E-1,9E0,2E0,-5.2985E-2,8.710393E-2,1.2203505E-1,-5.9111226E-2,-8.458018E-2,9.310584E-3],"split_indices":[5004,1981,5010,5006,0,5002,5002,0,0,0,0,0,0],"split_type":[0,0,0,0,0,0,0,0,0,0,0,0,0],"sum_hessian":[4.5668747E2,2.054695E2,2.5121797E2,2.0199013E2,3.4793773E0,1.1678528E2,1.344327E2,1.8800961E2,1.3980519E1,1.05143906E2,1.1641375E1,4.6288136E1,8.814456E1],"tree_param":{"num_deleted":"0","num_feature":"5012","num_nodes":"13","size_leaf_vector":"1"}},{"base_weights":[-5.3252008E-2,2.5470546E-1,-3.259468E-1,-2.2160009E-1,4.283724E-1,-2.4725455E-1,-9.453105E-2,-9.614295E-2,-2.5081519E-2,9.195931E-2,-9.4799E-2,-2.6290355E-2,-6.329959E-2],"categories":[],"categories_nodes":[],"categories_segments":[],"categories_sizes":[],"default_left":[0,0,0,0,0,0,0,0,0,0,0,0,0],"id":46,"left_children":[1,3,5,7,9,11,-1,-1,-1,-1,-1,-1,-1],"loss_changes":[3.0207859E1,1.4079941E1,2.0141125E0,1.01597E0,3.738512E0,9.2987967E-1,0E0,0E0,0E0,0E0,0E0,0E0,0E0],"parents":[2147483647,0,0,1,1,2,2,3,3,4,4,5,5],"right_children":[2,4,6,8,10,12,-1,-1,-1,-1,-1,-1,-1],"split_conditions":[2E0,5.948401E1,1.4783997E1,1.1142242E1,1E0,2.1E1,-9.453105E-2,-9.614295E-2,-2.5081519E-2,9.195931E-2,-9.4799E-2,-2.6290355E-2,-6.329959E-2],"split_indices":[5002,5009,5010,5009,5006,5001,0,0,0,0,0,0,0],"split_type":[0,0,0,0,0,0,0,0,0,0,0,0,0],"sum_hessian":[3.5763647E2,1.6781747E2,1.89819E2,4.4611763E1,1.2320571E2,1.2574057E2,6.407843E1,1.0714095E1,3.389767E1,1.1964061E2,3.565102E0,4.86765E1,7.706407E1],"tree_param":{"num_deleted":"0","num_feature":"5012","num_nodes":"13","size_leaf_vector":"1"}},{"base_weights":[-6.89811E-3,-3.4348078E-2,1.8261397E-1,-2.1742716E-1,1.22947775E-1,-5.134828E-2,1.785832E-1,6.807802E-2,-6.595077E-2],"categories":[],"categories_nodes":[],"categories_segments":[],"categories_sizes":[],"default_left":[0,0,0,0,0,0,0,0,0],"id":47,"left_children":[1,3,-1,5,7,-1,-1,-1,-1],"loss_changes":[1.1193441E1,1.2524254E1,0E0,8.942174E0,2.3107523E1,0E0,0E0,0E0,0E0],"parents":[2147483647,0,0,1,1,3,3,4,4],"right_children":[2,4,-1,6,8,-1,-1,-1,-1],"split_conditions":[4.245288E-1,1.4024963E1,1.8261397E-1,5.8633006E-1,1.4981995E1,-5.134828E-2,1.785832E-1,6.807802E-2,-6.595077E-2],"split_indices":[4427,5010,0,2283,5010,0,0,0,0],"split_type":[0,0,0,0,0,0,0,0,0],"sum_hessian":[4.4448813E2,4.3265012E2,1.1838033E1,2.0005566E2,2.3259444E2,1.9404393E2,6.0117345E0,1.5744109E2,7.515335E1],"tree_param":{"num_deleted":"0","num_feature":"5012","num_nodes":"9","size_leaf_vector":"1"}},{"base_weights":[-2.1583878E-2,2.1360794E-1,-2.3962718E-1,2.3987544E-1,-1.2918492E-1,-2.0126458E-1,-8.6823046E-2,9.1697596E-2,2.2339052E-2,-3.6974594E-2,-1.2296263E-1],"categories":[],"categories_nodes":[],"categories_segments":[],"categories_sizes":[],"default_left":[0,0,0,0,0,0,0,0,0,0,0],"id":48,"left_children":[1,3,5,7,-1,9,-1,-1,-1,-1,-1],"loss_changes":[2.1021263E1,4.562298E0,1.437253E0,5.2721357E0,0E0,1.0271125E0,0E0,0E0,0E0,0E0,0E0],"parents":[2147483647,0,0,1,1,2,2,3,3,5,5],"right_children":[2,4,6,8,-1,10,-1,-1,-1,-1,-1],"split_conditions":[1.2E1,4.269123E-1,1.4E1,9.96E0,-1.2918492E-1,3.6796692E-1,-8.6823046E-2,9.1697596E-2,2.2339052E-2,-3.6974594E-2,-1.2296263E-1],"split_indices":[5000,4687,5000,5000,0,2470,0,0,0,0,0],"split_type":[0,0,0,0,0,0,0,0,0,0,0],"sum_hessian":[4.0786618E2,1.9600627E2,2.1185991E2,1.9100633E2,4.999929E0,1.7908463E2,3.277528E1,6.935819E1,1.2164814E2,1.7388142E2,5.203196E0],"tree_param":{"num_deleted":"0","num_feature":"5012","num_nodes":"11","size_leaf_vector":"1"}},{"base_weights":[3.2718282E-2,-1.0876379E-1,1.7813931E-1,5.2731056E-2,4.3943384E-1,9.732271E-2,-2.0099733E-2,-9.432008E-2,9.7852014E-2],"categories":[],"categories_nodes":[],"categories_segments":[],"categories_sizes":[],"default_left":[0,0,0,0,0,0,0,0,0],"id":49,"left_children":[1,-1,3,5,7,-1,-1,-1,-1],"loss_changes":[3.6205814E1,0E0,1.1238457E1,1.5686503E1,5.295931E0,0E0,0E0,0E0,0E0],"parents":[2147483647,0,0,2,2,3,3,4,4],"right_children":[2,-1,4,6,8,-1,-1,-1,-1],"split_conditions":[1.2774957E3,-1.0876379E-1,1.4981995E1,1.002E1,9.2709625E1,9.732271E-2,-2.0099733E-2,-9.432008E-2,9.7852014E-2],"split_indices":[5011,0,5010,5000,5009,0,0,0,0],"split_type":[0,0,0,0,0,0,0,0,0],"sum_hessian":[4.3012155E2,8.594725E1,3.4417432E2,2.3362875E2,1.10545555E2,6.057698E1,1.7305177E2,5.1894045E0,1.05356155E2],"tree_param":{"num_deleted":"0","num_feature":"5012","num_nodes":"9","size_leaf_vector":"1"}},{"base_weights":[2.8189095E-2,-1.0539393E-3,5.8806866E-1,-1.5954414E-1,1.1584458E-1,-1.527698E-1,2.403705E-1,-2.1390382E-2,-1.07781924E-1,6.1604943E-2,-1.4114926E-2,1.4208697E-2,-1.0141616E-1],"categories":[],"categories_nodes":[],"categories_segments":[],"categories_sizes":[],"default_left":[0,0,0,0,0,0,0,0,0,0,0,0,0],"id":50,"left_children":[1,3,5,7,9,11,-1,-1,-1,-1,-1,-1,-1],"loss_changes":[7.698024E0,8.253114E0,1.0897239E1,3.6556368E0,9.212432E0,9.824163E-1,0E0,0E0,0E0,0E0,0E0,0E0,0E0],"parents":[2147483647,0,0,1,1,2,2,3,3,4,4,5,5],"right_children":[2,4,6,8,10,12,-1,-1,-1,-1,-1,-1,-1],"split_conditions":[3.084E1,1E0,2.1E1,6.7E1,1.4759979E1,4.463569E-1,2.403705E-1,-2.1390382E-2,-1.07781924E-1,6.1604943E-2,-1.4114926E-2,1.4208697E-2,-1.0141616E-1],"split_indices":[5010,5004,5001,5001,5010,4185,0,0,0,0,0,0,0],"split_type":[0,0,0,0,0,0,0,0,0,0,0,0,0],"sum_hessian":[4.6555472E2,4.432242E2,2.2330507E1,1.8835051E2,2.5487369E2,1.0384531E1,1.1945975E1,1.6677557E2,2.157493E1,1.2544064E2,1.2943304E2,6.681299E0,3.7032323E0],"tree_param":{"num_deleted":"0","num_feature":"5012","num_nodes":"13","size_leaf_vector":"1"}},{"base_weights":[7.437804E-3,-9.278532E-2,1.2693559E-1,8.464641E-2,-2.6199365E-1,-2.5604984E-2,9.412965E-2,-4.2435434E-2,-7.24893E-2],"categories":[],"categories_nodes":[],"categories_segments":[],"categories_sizes":[],"default_left":[0,0,0,0,0,0,0,0,0],"id":51,"left_children":[1,3,-1,5,7,-1,-1,-1,-1],"loss_changes":[2.050832E1,8.4605E0,0E0,1.1371959E1,5.8671856E-1,0E0,0E0,0E0,0E0],"parents":[2147483647,0,0,1,1,3,3,4,4],"right_children":[2,4,-1,6,8,-1,-1,-1,-1],"split_conditions":[1.6348034E-1,1.4E1,1.2693559E-1,1.3E1,4.3E1,-2.5604984E-2,9.412965E-2,-4.2435434E-2,-7.24893E-2],"split_indices":[2516,5001,0,5001,5001,0,0,0,0],"split_type":[0,0,0,0,0,0,0,0,0],"sum_hessian":[3.2343454E2,2.7947195E2,4.3962585E1,1.3637645E2,1.4309549E2,8.819426E1,4.8182186E1,9.840319E1,4.4692307E1],"tree_param":{"num_deleted":"0","num_feature":"5012","num_nodes":"9","size_leaf_vector":"1"}},{"base_weights":[1.306119E-3,1.4854206E-1,-1.8174632E-1,2.0948516E-1,-1.0375803E-1,-2.362433E-1,7.9155946E-1,5.5429865E-2,-1.0300527E-1,-9.107598E-2,8.010531E-3,-4.8077656E-3,2.823408E-1],"categories":[],"categories_nodes":[],"categories_segments":[],"categories_sizes":[],"default_left":[0,0,0,0,0,0,0,0,0,0,0,0,0],"id":52,"left_children":[1,3,5,7,-1,9,11,-1,-1,-1,-1,-1,-1],"loss_changes":[1.1869301E1,1.0018878E1,1.0531544E1,1.114104E1,0E0,1.1354296E1,5.498063E0,0E0,0E0,0E0,0E0,0E0,0E0],"parents":[2147483647,0,0,1,1,2,2,3,3,5,5,6,6],"right_children":[2,4,6,8,-1,10,12,-1,-1,-1,-1,-1,-1],"split_conditions":[3E0,1.6348034E-1,1E0,1E0,-1.0375803E-1,1.4759979E1,1E0,5.5429865E-2,-1.0300527E-1,-9.107598E-2,8.010531E-3,-4.8077656E-3,2.823408E-1],"split_indices":[5002,2516,5005,2543,0,5010,5008,0,0,0,0,0,0],"split_type":[0,0,0,0,0,0,0,0,0,0,0,0,0],"sum_hessian":[4.3850986E2,2.434382E2,1.9507166E2,2.2383293E2,1.9605268E1,1.8554283E2,9.528824E0,2.0540508E2,1.8427866E1,1.0331507E2,8.222776E1,4.461351E0,5.0674725E0],"tree_param":{"num_deleted":"0","num_feature":"5012","num_nodes":"13","size_leaf_vector":"1"}},{"base_weights":[4.615938E-3,2.304711E-1,-4.378952E-1,3.8372588E-1,-1.2955023E-1,4.146259E-1,-1.0061534E-1,1.085751E-1,1.9174252E-2,-4.814204E-2,6.660818E-2,1.5533789E-1,-4.095142E-2],"categories":[],"categories_nodes":[],"categories_segments":[],"categories_sizes":[],"default_left":[0,0,0,0,0,0,0,0,0,0,0,0,0],"id":53,"left_children":[1,3,5,7,9,11,-1,-1,-1,-1,-1,-1,-1],"loss_changes":[3.8579273E1,1.4191287E1,7.4616566E0,8.125673E0,4.0274606E0,2.3912084E0,0E0,0E0,0E0,0E0,0E0,0E0,0E0],"parents":[2147483647,0,0,1,1,2,2,3,3,4,4,5,5],"right_children":[2,4,6,8,10,12,-1,-1,-1,-1,-1,-1,-1],"split_conditions":[1E0,7.5E0,9.3596E0,1.36026E1,6E0,5E0,-1.0061534E-1,1.085751E-1,1.9174252E-2,-4.814204E-2,6.660818E-2,1.5533789E-1,-4.095142E-2],"split_indices":[5004,5003,5000,5010,5002,5002,0,0,0,0,0,0,0],"split_type":[0,0,0,0,0,0,0,0,0,0,0,0,0],"sum_hessian":[3.8420886E2,2.5484341E2,1.2936546E2,1.7890051E2,7.5942894E1,8.698661E0,1.206668E2,1.1441127E2,6.448925E1,6.1790543E1,1.4152353E1,5.4312654E0,3.2673957E0],"tree_param":{"num_deleted":"0","num_feature":"5012","num_nodes":"13","size_leaf_vector":"1"}},{"base_weights":[-2.8524676E-2,-4.2882103E-1,1.3953815E-1,-4.9421668E-1,1.858169E-1,1.3760915E-2,5.233285E-1,-1.128881E-1,1.8133394E-1,-1.2618199E-2,2.0644806E-1,-1.3244294E-1,1.2016594E-1],"categories":[],"categories_nodes":[],"categories_segments":[],"categories_sizes":[],"default_left":[0,0,0,0,0,0,0,0,0,0,0,0,0],"id":54,"left_children":[1,3,5,7,-1,9,11,-1,-1,-1,-1,-1,-1],"loss_changes":[2.7332582E1,1.1086742E1,1.3734972E1,1.1827112E1,0E0,1.710595E1,6.852785E0,0E0,0E0,0E0,0E0,0E0,0E0],"parents":[2147483647,0,0,1,1,2,2,3,3,5,5,6,6],"right_children":[2,4,6,8,-1,10,12,-1,-1,-1,-1,-1,-1],"split_conditions":[3E0,4.463569E-1,1E0,1E0,1.858169E-1,2.1259454E-1,5.9166665E0,-1.128881E-1,1.8133394E-1,-1.2618199E-2,2.0644806E-1,-1.3244294E-1,1.2016594E-1],"split_indices":[5002,4185,5006,3829,0,3556,5003,0,0,0,0,0,0],"split_type":[0,0,0,0,0,0,0,0,0,0,0,0,0],"sum_hessian":[4.039623E2,1.1916811E2,2.847942E2,1.1436984E2,4.798271E0,2.1547449E2,6.931972E1,1.0954693E2,4.8229156E0,2.0113705E2,1.4337431E1,3.7113867E0,6.560833E1],"tree_param":{"num_deleted":"0","num_feature":"5012","num_nodes":"13","size_leaf_vector":"1"}},{"base_weights":[-4.0184716E-3,-1.9970832E-2,2.3267536E-1,-6.9273226E-2,2.611969E-1,-4.3373942E-2,1.8795682E-2,1.5875953E-1,5.692898E-4],"categories":[],"categories_nodes":[],"categories_segments":[],"categories_sizes":[],"default_left":[0,0,0,0,0,0,0,0,0],"id":55,"left_children":[1,3,-1,5,7,-1,-1,-1,-1],"loss_changes":[8.184902E0,6.0910916E0,0E0,9.068632E0,8.926949E0,0E0,0E0,0E0,0E0],"parents":[2147483647,0,0,1,1,3,3,4,4],"right_children":[2,4,-1,6,8,-1,-1,-1,-1],"split_conditions":[3.8182992E-1,1E0,2.3267536E-1,1.9930864E3,1.4181998E2,-4.3373942E-2,1.8795682E-2,1.5875953E-1,5.692898E-4],"split_indices":[2491,5006,0,5011,5009,0,0,0,0],"split_type":[0,0,0,0,0,0,0,0,0],"sum_hessian":[4.434041E2,4.3848087E2,4.923251E0,3.7400827E2,6.447257E1,1.9657138E2,1.7743689E2,2.025545E1,4.4217125E1],"tree_param":{"num_deleted":"0","num_feature":"5012","num_nodes":"9","size_leaf_vector":"1"}},{"base_weights":[-4.123169E-2,-1.323453E-1,1.20752625E-1,5.903107E-2,-2.6565236E-1,-3.9372716E-2,4.158393E-2,-5.5869486E-2,7.997189E-3],"categories":[],"categories_nodes":[],"categories_segments":[],"categories_sizes":[],"default_left":[0,0,0,0,0,0,0,0,0],"id":56,"left_children":[1,3,-1,5,7,-1,-1,-1,-1],"loss_changes":[1.8595291E1,7.1215296E0,0E0,4.405831E0,7.2234344E-1,0E0,0E0,0E0,0E0],"parents":[2147483647,0,0,1,1,3,3,4,4],"right_children":[2,4,-1,6,8,-1,-1,-1,-1],"split_conditions":[1E0,2E0,1.20752625E-1,5.948401E1,1E0,-3.9372716E-2,4.158393E-2,-5.5869486E-2,7.997189E-3],"split_indices":[2543,5002,0,5009,5005,0,0,0,0],"split_type":[0,0,0,0,0,0,0,0,0],"sum_hessian":[3.1486218E2,2.7672162E2,3.8140556E1,1.1353589E2,1.6318573E2,4.1395542E1,7.214034E1,1.5658276E2,6.6029625E0],"tree_param":{"num_deleted":"0","num_feature":"5012","num_nodes":"9","size_leaf_vector":"1"}},{"base_weights":[4.8609514E-2,1.21705465E-1,-3.344798E-1,2.0587875E-2,6.530711E-1,-6.5478735E-2,-4.5769703E-1,-4.5472424E-2,3.0306816E-2,-3.734304E-2,1.677917E-1,-8.022311E-2,9.7185515E-2,-1.00043036E-1,-2.8978113E-2],"categories":[],"categories_nodes":[],"categories_segments":[],"categories_sizes":[],"default_left":[0,0,0,0,0,0,0,0,0,0,0,0,0,0,0],"id":57,"left_children":[1,3,5,7,9,11,13,-1,-1,-1,-1,-1,-1,-1,-1],"loss_changes":[1.198891E1,1.9257193E1,2.1894655E0,9.882848E0,9.17441E0,4.434515E0,4.8258972E-1,0E0,0E0,0E0,0E0,0E0,0E0,0E0,0E0],"parents":[2147483647,0,0,1,1,2,2,3,3,4,4,5,5,6,6],"right_children":[2,4,6,8,10,12,14,-1,-1,-1,-1,-1,-1,-1,-1],"split_conditions":[1.4981995E1,5.619476E3,3.1558826E3,1.22890625E1,1.4024963E1,1.4E1,9.333333E0,-4.5472424E-2,3.0306816E-2,-3.734304E-2,1.677917E-1,-8.022311E-2,9.7185515E-2,-1.00043036E-1,-2.8978113E-2],"split_indices":[5010,5011,5011,5010,5010,5000,5003,0,0,0,0,0,0,0,0],"split_type":[0,0,0,0,0,0,0,0,0,0,0,0,0,0,0],"sum_hessian":[4.2644662E2,3.5890796E2,6.753865E1,3.0255872E2,5.634925E1,2.1953646E1,4.5585003E1,1.0404565E2,1.9851308E2,1.0114116E1,4.6235134E1,1.3929051E1,8.024594E0,3.9321445E1,6.26356E0],"tree_param":{"num_deleted":"0","num_feature":"5012","num_nodes":"15","size_leaf_vector":"1"}},{"base_weights":[-3.162643E-2,3.2183117E-1,-1.493087E-1,5.1605016E-1,-1.5134847E-1,-1.6659325E-2,-4.1114855E-1,1.2866841E-1,5.0109576E-2,-1.13913395E-1,2.3238635E-2,-1.4411944E-2,1.2753288E-1,1.3476896E-2,-8.8978775E-2],"categories":[],"categories_nodes":[],"categories_segments":[],"categories_sizes":[],"default_left":[0,0,0,0,0,0,0,0,0,0,0,0,0,0,0],"id":58,"left_children":[1,3,5,7,9,11,13,-1,-1,-1,-1,-1,-1,-1,-1],"loss_changes":[1.5908211E1,8.886336E0,9.927727E0,2.0492172E0,3.2891908E0,6.9479933E0,1.6227589E0,0E0,0E0,0E0,0E0,0E0,0E0,0E0,0E0],"parents":[2147483647,0,0,1,1,2,2,3,3,4,4,5,5,6,6],"right_children":[2,4,6,8,10,12,14,-1,-1,-1,-1,-1,-1,-1,-1],"split_conditions":[1E1,2.1765186E3,8E0,9.96E0,3.7E1,8.6E1,5.0496002E1,1.2866841E-1,5.0109576E-2,-1.13913395E-1,2.3238635E-2,-1.4411944E-2,1.2753288E-1,1.3476896E-2,-8.8978775E-2],"split_indices":[5000,5011,5003,5000,5001,5001,5009,0,0,0,0,0,0,0,0],"split_type":[0,0,0,0,0,0,0,0,0,0,0,0,0,0,0],"sum_hessian":[3.807081E2,9.444848E1,2.862596E2,6.704872E1,2.7399755E1,1.9096257E2,9.529705E1,4.410388E1,2.294484E1,1.0395107E1,1.7004648E1,1.7701752E2,1.3945049E1,6.0166326E0,8.928042E1],"tree_param":{"num_deleted":"0","num_feature":"5012","num_nodes":"15","size_leaf_vector":"1"}},{"base_weights":[-1.6734298E-2,-1.0719647E-1,9.854277E-2,1.4153965E-1,-1.1730086E-1,1.9438813E-2,1.6337898E-1],"categories":[],"categories_nodes":[],"categories_segments":[],"categories_sizes":[],"default_left":[0,0,0,0,0,0,0],"id":59,"left_children":[1,-1,3,5,-1,-1,-1],"loss_changes":[2.4598503E1,0E0,9.925322E0,9.316411E0,0E0,0E0,0E0],"parents":[2147483647,0,0,2,2,3,3],"right_children":[2,-1,4,6,-1,-1,-1],"split_conditions":[1.0613999E2,-1.0719647E-1,1.3E1,2.4076384E-1,-1.1730086E-1,1.9438813E-2,1.6337898E-1],"split_indices":[5009,0,5002,1424,0,0,0],"split_type":[0,0,0,0,0,0,0],"sum_hessian":[4.083386E2,7.3679306E1,3.3465927E2,3.1577884E2,1.8880451E1,2.9753397E2,1.8244871E1],"tree_param":{"num_deleted":"0","num_feature":"5012","num_nodes":"7","size_leaf_vector":"1"}},{"base_weights":[-1.5077109E-2,-2.7498936E-2,2.3522031E-1,1.8323205E-2,-3.9448604E-1,-9.115836E-2,1.1467259E-2,3.5390344E-2,-8.85511E-2],"categories":[],"categories_nodes":[],"categories_segments":[],"categories_sizes":[],"default_left":[0,0,0,0,0,0,0,0,0],"id":60,"left_children":[1,3,-1,5,7,-1,-1,-1,-1],"loss_changes":[7.113056E0,8.155941E0,0E0,7.930864E0,1.5896292E0,0E0,0E0,0E0,0E0],"parents":[2147483647,0,0,1,1,3,3,4,4],"right_children":[2,4,-1,6,8,-1,-1,-1,-1],"split_conditions":[2.770682E-1,9E0,2.3522031E-1,9.96E0,9.96E0,-9.115836E-2,1.1467259E-2,3.5390344E-2,-8.85511E-2],"split_indices":[3644,5002,0,5000,5000,0,0,0,0],"split_type":[0,0,0,0,0,0,0,0,0],"sum_hessian":[4.852987E2,4.8134006E2,3.958636E0,4.285133E2,5.2826744E1,3.1572721E1,3.9694058E2,3.745699E0,4.9081047E1],"tree_param":{"num_deleted":"0","num_feature":"5012","num_nodes":"9","size_leaf_vector":"1"}},{"base_weights":[-5.6622922E-2,-1.4115213E-1,1.1948774E-1,-2.3128265E-1,3.658474E-1,-3.8858052E-2,-1.4108174E-1,9.444188E-2,-9.6882775E-2],"categories":[],"categories_nodes":[],"categories_segments":[],"categories_sizes":[],"default_left":[0,0,0,0,0,0,0,0,0],"id":61,"left_children":[1,3,-1,5,7,-1,-1,-1,-1],"loss_changes":[1.7221119E1,1.2690612E1,0E0,3.8991594E0,4.017072E0,0E0,0E0,0E0,0E0],"parents":[2147483647,0,0,1,1,3,3,4,4],"right_children":[2,4,-1,6,8,-1,-1,-1,-1],"split_conditions":[1E0,1.3E1,1.1948774E-1,1.1666667E1,1.0395667E3,-3.8858052E-2,-1.4108174E-1,9.444188E-2,-9.6882775E-2],"split_indices":[2516,5003,0,5003,5011,0,0,0,0],"split_type":[0,0,0,0,0,0,0,0,0],"sum_hessian":[3.097841E2,2.7516022E2,3.4623898E1,2.3425687E2,4.0903347E1,2.1880583E2,1.545103E1,3.6855244E1,4.0481024E0],"tree_param":{"num_deleted":"0","num_feature":"5012","num_nodes":"9","size_leaf_vector":"1"}},{"base_weights":[6.371913E-2,5.363138E-3,3.45597E-1,-2.5780747E-2,1.1897232E-1,5.2933764E-1,-1.04751445E-1,-8.291681E-3,2.4203773E-1,1.5308748E-1,2.546737E-2],"categories":[],"categories_nodes":[],"categories_segments":[],"categories_sizes":[],"default_left":[0,0,0,0,0,0,0,0,0,0,0],"id":62,"left_children":[1,3,5,7,-1,9,-1,-1,-1,-1,-1],"loss_changes":[6.821047E0,6.437755E0,1.1650824E1,6.330034E0,0E0,5.4480743E0,0E0,0E0,0E0,0E0,0E0],"parents":[2147483647,0,0,1,1,2,2,3,3,5,5],"right_children":[2,4,6,8,-1,10,-1,-1,-1,-1,-1],"split_conditions":[5.619476E3,5.4631644E-1,1E0,7.6250285E-1,1.1897232E-1,6.325161E3,-1.04751445E-1,-8.291681E-3,2.4203773E-1,1.5308748E-1,2.546737E-2],"split_indices":[5011,478,5004,1960,0,5011,0,0,0,0,0],"split_type":[0,0,0,0,0,0,0,0,0,0,0],"sum_hessian":[4.1591815E2,3.4571915E2,7.019899E1,3.291181E2,1.6601059E1,5.8368725E1,1.1830263E1,3.2602994E2,3.0881631E0,3.6045788E1,2.2322939E1],"tree_param":{"num_deleted":"0","num_feature":"5012","num_nodes":"11","size_leaf_vector":"1"}},{"base_weights":[7.65783E-3,2.4048327E-1,-4.4549122E-1,4.5992443E-1,6.502124E-2,1.19849615E-1,-1.0063497E-1,8.03222E-2,1.7064902E-1,-9.341713E-2,8.423126E-2],"categories":[],"categories_nodes":[],"categories_segments":[],"categories_sizes":[],"default_left":[0,0,0,0,0,0,0,0,0,0,0],"id":63,"left_children":[1,3,5,7,9,-1,-1,-1,-1,-1,-1],"loss_changes":[3.713491E1,8.87985E0,7.486826E0,1.89431E0,2.4971582E1,0E0,0E0,0E0,0E0,0E0,0E0],"parents":[2147483647,0,0,1,1,2,2,3,3,4,4],"right_children":[2,4,6,8,10,-1,-1,-1,-1,-1,-1],"split_conditions":[1E0,1.4181998E2,9.3596E0,4E0,5E0,1.19849615E-1,-1.0063497E-1,8.03222E-2,1.7064902E-1,-9.341713E-2,8.423126E-2],"split_indices":[5004,5009,5000,5002,5002,0,0,0,0,0,0],"split_type":[0,0,0,0,0,0,0,0,0,0,0],"sum_hessian":[3.501531E2,2.3176404E2,1.1838908E2,1.02003044E2,1.29761E2,5.6126804E0,1.1277639E2,9.081429E1,1.11887455E1,5.1789368E1,7.797163E1],"tree_param":{"num_deleted":"0","num_feature":"5012","num_nodes":"11","size_leaf_vector":"1"}},{"base_weights":[2.3874791E-2,-1.0648177E-1,1.2671705E-1,8.909226E-2,1.8020293E-1,1.3407098E-2,3.0428907E-1],"categories":[],"categories_nodes":[],"categories_segments":[],"categories_sizes":[],"default_left":[0,0,0,0,0,0,0],"id":64,"left_children":[1,-1,3,5,-1,-1,-1],"loss_changes":[2.2474016E1,0E0,9.495899E0,9.784157E0,0E0,0E0,0E0],"parents":[2147483647,0,0,2,2,3,3],"right_children":[2,-1,4,6,-1,-1,-1],"split_conditions":[1.2774957E3,-1.0648177E-1,5.223165E-1,3.1224796E-1,1.8020293E-1,1.3407098E-2,3.0428907E-1],"split_indices":[5011,0,1205,3834,0,0,0],"split_type":[0,0,0,0,0,0,0],"sum_hessian":[3.9136722E2,6.0260906E1,3.3110632E2,3.1694928E2,1.415704E1,3.1324228E2,3.7069938E0],"tree_param":{"num_deleted":"0","num_feature":"5012","num_nodes":"7","size_leaf_vector":"1"}},{"base_weights":[3.3099037E-2,2.1398265E-2,2.0840573E-1,1.0985062E-2,2.3172453E-1,-5.9348214E-3,5.3562697E-2],"categories":[],"categories_nodes":[],"categories_segments":[],"categories_sizes":[],"default_left":[0,0,0,0,0,0,0],"id":65,"left_children":[1,3,-1,5,-1,-1,-1],"loss_changes":[5.290309E0,5.2571282E0,0E0,4.7502184E0,0E0,0E0,0E0],"parents":[2147483647,0,0,1,1,3,3],"right_children":[2,4,-1,6,-1,-1,-1],"split_conditions":[2.770682E-1,1E0,2.0840573E-1,1E0,2.3172453E-1,-5.9348214E-3,5.3562697E-2],"split_indices":[3644,732,0,5006,0,0,0],"split_type":[0,0,0,0,0,0,0],"sum_hessian":[4.5802853E2,4.5388504E2,4.143478E0,4.508543E2,3.0307372E0,3.8966116E2,6.1193165E1],"tree_param":{"num_deleted":"0","num_feature":"5012","num_nodes":"7","size_leaf_vector":"1"}},{"base_weights":[-2.3069164E-2,-1.0944827E-1,1.1775627E-1,-1.9078514E-1,3.33744E-1,-4.2857E-2,1.6264509E-1,8.987168E-2,-6.762072E-2],"categories":[],"categories_nodes":[],"categories_segments":[],"categories_sizes":[],"default_left":[0,0,0,0,0,0,0,0,0],"id":66,"left_children":[1,3,-1,5,7,-1,-1,-1,-1],"loss_changes":[1.531592E1,9.229174E0,0E0,5.210551E0,3.243783E0,0E0,0E0,0E0,0E0],"parents":[2147483647,0,0,1,1,3,3,4,4],"right_children":[2,4,-1,6,8,-1,-1,-1,-1],"split_conditions":[1E0,1.3E1,1.1775627E-1,1E0,1.0395667E3,-4.2857E-2,1.6264509E-1,8.987168E-2,-6.762072E-2],"split_indices":[2516,5003,0,2341,5011,0,0,0,0],"split_type":[0,0,0,0,0,0,0,0,0],"sum_hessian":[2.8848145E2,2.5365569E2,3.4825745E1,2.1499405E2,3.8661636E1,2.109429E2,4.051152E0,3.33949E1,5.2667346E0],"tree_param":{"num_deleted":"0","num_feature":"5012","num_nodes":"9","size_leaf_vector":"1"}},{"base_weights":[-3.6499415E-2,2.2023568E-2,-3.5577017E-1,-1.6031712E-1,2.344184E-1,-4.1711357E-1,8.625325E-2,-4.1029926E-2,1.6895682E-1,6.0117085E-2,-9.972023E-2,-1.1168336E-1,-5.1852822E-2],"categories":[],"categories_nodes":[],"categories_segments":[],"categories_sizes":[],"default_left":[0,0,0,0,0,0,0,0,0,0,0,0,0],"id":67,"left_children":[1,3,5,7,9,11,-1,-1,-1,-1,-1,-1,-1],"loss_changes":[7.8329926E0,1.3719657E1,3.312852E0,8.685791E0,8.072914E0,1.1307707E0,0E0,0E0,0E0,0E0,0E0,0E0,0E0],"parents":[2147483647,0,0,1,1,2,2,3,3,4,4,5,5],"right_children":[2,4,6,8,10,12,-1,-1,-1,-1,-1,-1,-1],"split_conditions":[1.4981995E1,1.4024963E1,1E0,2.9008973E-1,1.6348034E-1,1.9263718E1,8.625325E-2,-4.1029926E-2,1.6895682E-1,6.0117085E-2,-9.972023E-2,-1.1168336E-1,-5.1852822E-2],"split_indices":[5010,5010,5005,223,2516,5010,0,0,0,0,0,0,0],"split_type":[0,0,0,0,0,0,0,0,0,0,0,0,0],"sum_hessian":[4.160146E2,3.5209302E2,6.3921562E1,1.8932883E2,1.6276419E2,5.9853523E1,4.06804E0,1.8210158E2,7.2272506E0,1.4995468E2,1.2809507E1,2.9908735E1,2.9944788E1],"tree_param":{"num_deleted":"0","num_feature":"5012","num_nodes":"13","size_leaf_vector":"1"}},{"base_weights":[-1.764391E-2,9.8190635E-2,-2.4750513E-1,3.0133283E-1,-5.8229323E-2,9.3570046E-2,-2.8854457E-1,3.0223334E-2,1.5895289E-1,5.2486774E-2,-2.261308E-2,-7.152369E-2,1.7931713E-2],"categories":[],"categories_nodes":[],"categories_segments":[],"categories_sizes":[],"default_left":[0,0,0,0,0,0,0,0,0,0,0,0,0],"id":68,"left_children":[1,3,5,7,9,-1,11,-1,-1,-1,-1,-1,-1],"loss_changes":[9.517286E0,7.57648E0,3.6356254E0,7.46387E0,2.3802316E0,0E0,3.0395794E0,0E0,0E0,0E0,0E0,0E0,0E0],"parents":[2147483647,0,0,1,1,2,2,3,3,4,4,6,6],"right_children":[2,4,6,8,10,-1,12,-1,-1,-1,-1,-1,-1],"split_conditions":[7.5E0,1.3E1,5.4531824E2,6E0,5.4531824E2,9.3570046E-2,6E0,3.0223334E-2,1.5895289E-1,5.2486774E-2,-2.261308E-2,-7.152369E-2,1.7931713E-2],"split_indices":[5003,5010,5011,5002,5011,0,5002,0,0,0,0,0,0],"split_type":[0,0,0,0,0,0,0,0,0,0,0,0,0],"sum_hessian":[3.549716E2,2.3612053E2,1.1885104E2,1.0259437E2,1.3352617E2,5.7519817E0,1.1309906E2,7.9807396E1,2.2786972E1,1.8680338E1,1.1484583E2,9.590254E1,1.7196518E1],"tree_param":{"num_deleted":"0","num_feature":"5012","num_nodes":"13","size_leaf_vector":"1"}},{"base_weights":[3.2061047E-3,-2.8146562E-1,1.6866177E-1,-3.3581695E-1,1.9585894E-1,1.1520174E-1,1.8222009E-1,-7.779781E-2,1.6676258E-1,-3.1397384E-2,6.263705E-2],"categories":[],"categories_nodes":[],"categories_segments":[],"categories_sizes":[],"default_left":[0,0,0,0,0,0,0,0,0,0,0],"id":69,"left_children":[1,3,5,7,-1,9,-1,-1,-1,-1,-1],"loss_changes":[1.7230394E1,9.46982E0,8.989407E0,8.3402605E0,0E0,1.1781425E1,0E0,0E0,0E0,0E0,0E0],"parents":[2147483647,0,0,1,1,2,2,3,3,5,5],"right_children":[2,4,6,8,-1,10,-1,-1,-1,-1,-1],"split_conditions":[2.4E1,3.9079997E-1,2.1259454E-1,3.9088765E-1,1.9585894E-1,1E0,1.8222009E-1,-7.779781E-2,1.6676258E-1,-3.1397384E-2,6.263705E-2],"split_indices":[5001,3738,3556,3964,0,5004,0,0,0,0,0],"split_type":[0,0,0,0,0,0,0,0,0,0,0],"sum_hessian":[3.640531E2,1.33337E2,2.307161E2,1.2860577E2,4.731231E0,2.1642226E2,1.4293841E1,1.2373368E2,4.8720865E0,9.100717E1,1.2541508E2],"tree_param":{"num_deleted":"0","num_feature":"5012","num_nodes":"11","size_leaf_vector":"1"}},{"base_weights":[1.5204984E-2,4.68612E-2,-3.5208955E-1,3.4921337E-2,1.7897755E-1,-6.960944E-2,-4.185645E-1,1.0524129E-2,-9.7251214E-2,6.458484E-2,-8.344341E-2,-9.3715325E-2,-1.4202327E-2],"categories":[],"categories_nodes":[],"categories_segments":[],"categories_sizes":[],"default_left":[0,0,0,0,0,0,0,0,0,0,0,0,0],"id":70,"left_children":[1,3,5,7,-1,9,11,-1,-1,-1,-1,-1,-1],"loss_changes":[5.120223E0,4.0035434E0,5.774884E-1,3.701213E0,0E0,1.2542107E0,3.954563E-1,0E0,0E0,0E0,0E0,0E0,0E0],"parents":[2147483647,0,0,1,1,2,2,3,3,5,5,6,6],"right_children":[2,4,6,8,-1,10,12,-1,-1,-1,-1,-1,-1],"split_conditions":[1E1,1.5019046E-1,4.6227144E3,1E0,1.7897755E-1,1.1E1,6.325161E3,1.0524129E-2,-9.7251214E-2,6.458484E-2,-8.344341E-2,-9.3715325E-2,-1.4202327E-2],"split_indices":[5002,4511,5011,2543,0,5002,5011,0,0,0,0,0,0],"split_type":[0,0,0,0,0,0,0,0,0,0,0,0,0],"sum_hessian":[4.4057364E2,4.0666855E2,3.390509E1,4.0216534E2,4.503222E0,7.135368E0,2.6769724E1,3.9001135E2,1.2153968E1,3.2493687E0,3.8859994E0,2.2846252E1,3.9234705E0],"tree_param":{"num_deleted":"0","num_feature":"5012","num_nodes":"13","size_leaf_vector":"1"}},{"base_weights":[-1.443086E-2,-9.2467576E-2,1.12665236E-1,7.8606755E-2,-2.0419902E-1,2.8665913E-2,-7.879459E-2,-2.3668868E-2,-7.561382E-2],"categories":[],"categories_nodes":[],"categories_segments":[],"categories_sizes":[],"default_left":[0,0,0,0,0,0,0,0,0],"id":71,"left_children":[1,3,-1,5,7,-1,-1,-1,-1],"loss_changes":[1.2313108E1,4.6450586E0,0E0,2.9612236E0,2.0959291E0,0E0,0E0,0E0,0E0],"parents":[2147483647,0,0,1,1,3,3,4,4],"right_children":[2,4,-1,6,8,-1,-1,-1,-1],"split_conditions":[1E0,2E0,1.12665236E-1,1.4981995E1,1.4783997E1,2.8665913E-2,-7.879459E-2,-2.3668868E-2,-7.561382E-2],"split_indices":[2543,5002,0,5010,5010,0,0,0,0],"split_type":[0,0,0,0,0,0,0,0,0],"sum_hessian":[2.7199014E2,2.4051695E2,3.14732E1,9.478742E1,1.4572952E2,8.416834E1,1.061908E1,9.906725E1,4.6662273E1],"tree_param":{"num_deleted":"0","num_feature":"5012","num_nodes":"9","size_leaf_vector":"1"}},{"base_weights":[5.29539E-2,1.07301995E-1,-4.8795623E-1,2.2896457E-1,-6.490443E-2,-2.8141376E-1,-1.1012814E-1,-5.4633614E-2,6.20281E-2,-7.898033E-2,2.0848406E-2,-9.146624E-2,-5.070559E-3],"categories":[],"categories_nodes":[],"categories_segments":[],"categories_sizes":[],"default_left":[0,0,0,0,0,0,0,0,0,0,0,0,0],"id":72,"left_children":[1,3,5,7,9,11,-1,-1,-1,-1,-1,-1,-1],"loss_changes":[1.2220827E1,7.9570904E0,2.5282574E-1,9.147356E0,8.836801E0,4.467358E-1,0E0,0E0,0E0,0E0,0E0,0E0,0E0],"parents":[2147483647,0,0,1,1,2,2,3,3,4,4,5,5],"right_children":[2,4,6,8,10,12,-1,-1,-1,-1,-1,-1,-1],"split_conditions":[1E0,3E0,1.1E1,5.4531824E2,1.2E1,2.1E1,-1.1012814E-1,-5.4633614E-2,6.20281E-2,-7.898033E-2,2.0848406E-2,-9.146624E-2,-5.070559E-3],"split_indices":[5006,5002,5000,5011,5000,5001,0,0,0,0,0,0,0],"split_type":[0,0,0,0,0,0,0,0,0,0,0,0,0],"sum_hessian":[4.1422446E2,3.7730148E2,3.692297E1,2.2124478E2,1.560567E2,1.0246356E1,2.6676613E1,3.0288874E1,1.909559E2,5.2631508E1,1.034252E2,5.376245E0,4.8701115E0],"tree_param":{"num_deleted":"0","num_feature":"5012","num_nodes":"13","size_leaf_vector":"1"}},{"base_weights":[-4.149306E-2,1.2660089E-1,-4.1817737E-1,3.846901E-1,-3.3869553E-2,1.8073803E-1,-9.347194E-2,8.44692E-2,-9.409228E-2,-4.4830915E-5,-1.2012199E-1,9.9159345E-2,-4.5911774E-2],"categories":[],"categories_nodes":[],"categories_segments":[],"categories_sizes":[],"default_left":[0,0,0,0,0,0,0,0,0,0,0,0,0],"id":73,"left_children":[1,3,5,7,9,11,-1,-1,-1,-1,-1,-1,-1],"loss_changes":[2.2517252E1,1.0218938E1,3.3457584E0,3.2360134E0,2.8401961E0,1.290273E0,0E0,0E0,0E0,0E0,0E0,0E0,0E0],"parents":[2147483647,0,0,1,1,2,2,3,3,4,4,5,5],"right_children":[2,4,6,8,10,12,-1,-1,-1,-1,-1,-1,-1],"split_conditions":[1E0,1.5089645E3,9.3596E0,6.7599595E-1,2.0456359E-1,1.0613999E2,-9.347194E-2,8.44692E-2,-9.409228E-2,-4.4830915E-5,-1.2012199E-1,9.9159345E-2,-4.5911774E-2],"split_indices":[5004,5011,5000,4907,2613,5009,0,0,0,0,0,0,0],"split_type":[0,0,0,0,0,0,0,0,0,0,0,0,0],"sum_hessian":[3.533231E2,2.4457906E2,1.0874404E2,9.347171E1,1.5110733E2,7.894995E0,1.00849045E2,9.012614E1,3.3455741E0,1.4375023E2,7.357106E0,4.4857893E0,3.409206E0],"tree_param":{"num_deleted":"0","num_feature":"5012","num_nodes":"13","size_leaf_vector":"1"}},{"base_weights":[6.9561854E-2,-1.0468393E-1,1.5055585E-1,1.22879796E-1,1.9397232E-1,1.7376505E-2,1.5470196E-1],"categories":[],"categories_nodes":[],"categories_segments":[],"categories_sizes":[],"default_left":[0,0,0,0,0,0,0],"id":74,"left_children":[1,-1,3,5,-1,-1,-1],"loss_changes":[1.944767E1,0E0,7.853594E0,7.951417E0,0E0,0E0,0E0],"parents":[2147483647,0,0,2,2,3,3],"right_children":[2,-1,4,6,-1,-1,-1],"split_conditions":[1.2774957E3,-1.0468393E-1,4.3888387E-1,2.4892315E-1,1.9397232E-1,1.7376505E-2,1.5470196E-1],"split_indices":[5011,0,4115,1424,0,0,0],"split_type":[0,0,0,0,0,0,0],"sum_hessian":[4.0305963E2,4.763228E1,3.5542737E2,3.4504385E2,1.0383508E1,3.2817426E2,1.6869598E1],"tree_param":{"num_deleted":"0","num_feature":"5012","num_nodes":"7","size_leaf_vector":"1"}},{"base_weights":[4.1632026E-2,2.6326537E-2,2.795496E-1,-2.5439488E-2,2.957036E-1,-3.225827E-2,1.8748337E-2,2.7334068E-2,1.1969932E-1],"categories":[],"categories_nodes":[],"categories_segments":[],"categories_sizes":[],"default_left":[0,0,0,0,0,0,0,0,0],"id":75,"left_children":[1,3,-1,5,7,-1,-1,-1,-1],"loss_changes":[8.63346E0,5.9043427E0,0E0,5.7485366E0,3.1308599E0,0E0,0E0,0E0,0E0],"parents":[2147483647,0,0,1,1,3,3,4,4],"right_children":[2,4,-1,6,8,-1,-1,-1,-1],"split_conditions":[2.807162E-1,1.302E1,2.795496E-1,1E0,1E0,-3.225827E-2,1.8748337E-2,2.7334068E-2,1.1969932E-1],"split_indices":[1044,5000,0,5004,5007,0,0,0,0],"split_type":[0,0,0,0,0,0,0,0,0],"sum_hessian":[4.2358368E2,4.199373E2,3.6463711E0,3.5269455E2,6.724276E1,1.6504701E2,1.8764752E2,4.5255337E1,2.1987427E1],"tree_param":{"num_deleted":"0","num_feature":"5012","num_nodes":"9","size_leaf_vector":"1"}},{"base_weights":[-4.651845E-2,-1.2357133E-1,1.1235223E-1,-2.1356776E-1,1.08707726E-1,-4.6882E-2,1.4749186E-1],"categories":[],"categories_nodes":[],"categories_segments":[],"categories_sizes":[],"default_left":[0,0,0,0,0,0,0],"id":76,"left_children":[1,3,-1,5,-1,-1,-1],"loss_changes":[1.223091E1,1.4017605E1,0E0,4.1930685E0,0E0,0E0,0E0],"parents":[2147483647,0,0,1,1,3,3],"right_children":[2,4,-1,6,-1,-1,-1],"split_conditions":[1E0,1E0,1.1235223E-1,1E0,1.08707726E-1,-4.6882E-2,1.4749186E-1],"split_indices":[2516,2543,0,2341,0,0,0],"split_type":[0,0,0,0,0,0,0],"sum_hessian":[2.5940945E2,2.3109685E2,2.831259E1,2.0435774E2,2.6739109E1,2.0081544E2,3.5423038E0],"tree_param":{"num_deleted":"0","num_feature":"5012","num_nodes":"7","size_leaf_vector":"1"}},{"base_weights":[4.1793086E-2,7.783611E-2,-4.478921E-1,1.127996E-1,-3.833236E-1,-2.3987079E-1,-1.055866E-1,2.7634114E-2,-9.785787E-2,6.509047E-2,-1.0897391E-1,-8.950339E-2,1.6356764E-2],"categories":[],"categories_nodes":[],"categories_segments":[],"categories_sizes":[],"default_left":[0,0,0,0,0,0,0,0,0,0,0,0,0],"id":77,"left_children":[1,3,5,7,9,11,-1,-1,-1,-1,-1,-1,-1],"loss_changes":[7.121675E0,6.094718E0,2.566204E-1,5.400312E0,3.244249E0,7.315233E-1,0E0,0E0,0E0,0E0,0E0,0E0,0E0],"parents":[2147483647,0,0,1,1,2,2,3,3,4,4,5,5],"right_children":[2,4,6,8,10,12,-1,-1,-1,-1,-1,-1,-1],"split_conditions":[1E0,1.8E1,1.1E1,1E0,3.1558826E3,1.4181998E2,-1.055866E-1,2.7634114E-2,-9.785787E-2,6.509047E-2,-1.0897391E-1,-8.950339E-2,1.6356764E-2],"split_indices":[5006,5000,5000,2543,5011,5009,0,0,0,0,0,0,0],"split_type":[0,0,0,0,0,0,0,0,0,0,0,0,0],"sum_hessian":[4.0262183E2,3.7599237E2,2.6629465E1,3.5039862E2,2.5593729E1,8.856969E0,1.7772495E1,3.371292E2,1.326943E1,4.4473853E0,2.1146345E1,5.333494E0,3.523475E0],"tree_param":{"num_deleted":"0","num_feature":"5012","num_nodes":"13","size_leaf_vector":"1"}},{"base_weights":[-4.02898E-2,1.207332E-1,-4.238423E-1,2.1247831E-1,-2.3072642E-1,2.4672933E-1,-9.6101485E-2,8.3816856E-2,7.825278E-3,7.604983E-2,-6.2177718E-2,1.2681244E-1,-4.654089E-2],"categories":[],"categories_nodes":[],"categories_segments":[],"categories_sizes":[],"default_left":[0,0,0,0,0,0,0,0,0,0,0,0,0],"id":78,"left_children":[1,3,5,7,9,11,-1,-1,-1,-1,-1,-1,-1],"loss_changes":[2.128892E1,7.864684E0,4.0153694E0,6.850259E0,2.581701E0,1.759835E0,0E0,0E0,0E0,0E0,0E0,0E0,0E0],"parents":[2147483647,0,0,1,1,2,2,3,3,4,4,5,5],"right_children":[2,4,6,8,10,12,-1,-1,-1,-1,-1,-1,-1],"split_conditions":[1E0,1E0,9.3596E0,1.3E1,1.002002E1,4E0,-9.6101485E-2,8.3816856E-2,7.825278E-3,7.604983E-2,-6.2177718E-2,1.2681244E-1,-4.654089E-2],"split_indices":[5004,5007,5000,5010,5010,5002,0,0,0,0,0,0,0],"split_type":[0,0,0,0,0,0,0,0,0,0,0,0,0],"sum_hessian":[3.4238034E2,2.4144247E2,1.0093787E2,1.9200215E2,4.944032E1,7.4660544E0,9.347181E1,8.66891E1,1.0531305E2,5.155494E0,4.4284824E1,4.0666656E0,3.3993888E0],"tree_param":{"num_deleted":"0","num_feature":"5012","num_nodes":"13","size_leaf_vector":"1"}},{"base_weights":[8.699951E-4,-1.0254709E-1,7.2655104E-2,3.9399408E-2,2.1147661E-1,1.3274525E-3,1.905803E-1],"categories":[],"categories_nodes":[],"categories_segments":[],"categories_sizes":[],"default_left":[0,0,0,0,0,0,0],"id":79,"left_children":[1,-1,3,5,-1,-1,-1],"loss_changes":[1.3488928E1,0E0,1.0400067E1,9.25968E0,0E0,0E0,0E0],"parents":[2147483647,0,0,2,2,3,3],"right_children":[2,-1,4,6,-1,-1,-1],"split_conditions":[9.2709625E1,-1.0254709E-1,3.408745E-1,3.809901E-1,2.1147661E-1,1.3274525E-3,1.905803E-1],"split_indices":[5009,0,4115,1230,0,0,0],"split_type":[0,0,0,0,0,0,0],"sum_hessian":[3.6504202E2,4.3840187E1,3.212018E2,3.1181302E2,9.388818E0,3.020953E2,9.717713E0],"tree_param":{"num_deleted":"0","num_feature":"5012","num_nodes":"7","size_leaf_vector":"1"}},{"base_weights":[2.5144957E-3,-9.2358015E-2,2.8074306E-2,6.750014E-2,-3.079206E-1,6.253217E-2,-1.369472E-3,1.5770994E-2,-7.751662E-2],"categories":[],"categories_nodes":[],"categories_segments":[],"categories_sizes":[],"default_left":[0,0,0,0,0,0,0,0,0],"id":80,"left_children":[1,-1,3,5,7,-1,-1,-1,-1],"loss_changes":[5.2325892E0,0E0,5.5801125E0,6.9281893E0,1.4225926E0,0E0,0E0,0E0,0E0],"parents":[2147483647,0,0,2,2,3,3,4,4],"right_children":[2,-1,4,6,8,-1,-1,-1,-1],"split_conditions":[9.3596E0,-9.2358015E-2,9E0,1.2164276E1,1.002E1,6.253217E-2,-1.369472E-3,1.5770994E-2,-7.751662E-2],"split_indices":[5000,0,5002,5010,5000,0,0,0,0],"split_type":[0,0,0,0,0,0,0,0,0],"sum_hessian":[4.4247842E2,2.1992687E1,4.2048575E2,3.7730884E2,4.31769E1,8.736443E1,2.899444E2,7.1614814E0,3.601542E1],"tree_param":{"num_deleted":"0","num_feature":"5012","num_nodes":"9","size_leaf_vector":"1"}},{"base_weights":[-4.047543E-2,1.4628491E-1,-2.0599002E-1,-1.2806323E-1,2.6174024E-1,-9.6309215E-2,-2.6990187E-1,-8.7760046E-2,-7.6467865E-3,-1.0118499E-1,6.197828E-2,5.3151365E-2,-3.3585664E-2,-5.8254745E-2,7.0962864E-3],"categories":[],"categories_nodes":[],"categories_segments":[],"categories_sizes":[],"default_left":[0,0,0,0,0,0,0,0,0,0,0,0,0,0,0],"id":81,"left_children":[1,3,5,7,9,11,13,-1,-1,-1,-1,-1,-1,-1,-1],"loss_changes":[7.7331667E0,3.7621548E0,8.676634E-1,9.168373E-1,3.2102747E0,1.3570738E0,5.757861E-1,0E0,0E0,0E0,0E0,0E0,0E0,0E0,0E0],"parents":[2147483647,0,0,1,1,2,2,3,3,4,4,5,5,6,6],"right_children":[2,4,6,8,10,12,14,-1,-1,-1,-1,-1,-1,-1,-1],"split_conditions":[2E0,5.948401E1,1.2E1,1.1142242E1,1.002E1,1.3E1,1E0,-8.7760046E-2,-7.6467865E-3,-1.0118499E-1,6.197828E-2,5.3151365E-2,-3.3585664E-2,-5.8254745E-2,7.0962864E-3],"split_indices":[5002,5009,5000,5009,5000,5001,5005,0,0,0,0,0,0,0,0],"split_type":[0,0,0,0,0,0,0,0,0,0,0,0,0,0,0],"sum_hessian":[2.4800273E2,1.1629354E2,1.3170918E2,3.4155937E1,8.213761E1,4.9990585E1,8.17186E1,6.5388255E0,2.7617111E1,4.1642294E0,7.797338E1,7.5772543E0,4.241333E1,7.672291E1,4.995691E0],"tree_param":{"num_deleted":"0","num_feature":"5012","num_nodes":"15","size_leaf_vector":"1"}},{"base_weights":[6.0696113E-3,1.4280355E-1,-1.6807002E-1,-3.3903982E-2,3.1210232E-1,-2.0342226E-1,1.529143E-1,4.9987226E-3,-9.6526615E-2,5.101919E-2,1.6160034E-1,-4.6208974E-2,1.3524844E-1],"categories":[],"categories_nodes":[],"categories_segments":[],"categories_sizes":[],"default_left":[0,0,0,0,0,0,0,0,0,0,0,0,0],"id":82,"left_children":[1,3,5,7,9,11,-1,-1,-1,-1,-1,-1,-1],"loss_changes":[9.775915E0,6.9293666E0,6.044863E0,3.0527E0,3.0240269E0,4.355021E0,0E0,0E0,0E0,0E0,0E0,0E0,0E0],"parents":[2147483647,0,0,1,1,2,2,3,3,4,4,5,5],"right_children":[2,4,6,8,10,12,-1,-1,-1,-1,-1,-1,-1],"split_conditions":[3E0,2E0,2.55847E-1,1.6348034E-1,2.995023E-1,2.6239502E-1,1.529143E-1,4.9987226E-3,-9.6526615E-2,5.101919E-2,1.6160034E-1,-4.6208974E-2,1.3524844E-1],"split_indices":[5002,5002,2141,2516,4427,3173,0,0,0,0,0,0,0],"split_type":[0,0,0,0,0,0,0,0,0,0,0,0,0],"sum_hessian":[4.086646E2,2.2934096E2,1.7932367E2,1.1231743E2,1.1702353E2,1.736312E2,5.692471E0,9.99235E1,1.2393932E1,1.0649716E2,1.0526367E1,1.6917006E2,4.4611316E0],"tree_param":{"num_deleted":"0","num_feature":"5012","num_nodes":"13","size_leaf_vector":"1"}},{"base_weights":[-3.9885004E-4,9.330674E-2,-2.817861E-1,2.5224018E-1,-9.6298136E-2,2.2772986E-1,-3.4959203E-1,6.7017734E-2,-6.0127564E-2,-6.693659E-2,3.4123253E-2,9.211063E-2,-1.1168572E-3,-7.935021E-2,-1.1270135E-2],"categories":[],"categories_nodes":[],"categories_segments":[],"categories_sizes":[],"default_left":[0,0,0,0,0,0,0,0,0,0,0,0,0,0,0],"id":83,"left_children":[1,3,5,7,9,11,13,-1,-1,-1,-1,-1,-1,-1,-1],"loss_changes":[8.742276E0,7.511018E0,2.9564118E0,6.3077946E0,7.2947497E0,6.0055566E-1,9.521599E-1,0E0,0E0,0E0,0E0,0E0,0E0,0E0,0E0],"parents":[2147483647,0,0,1,1,2,2,3,3,4,4,5,5,6,6],"right_children":[2,4,6,8,10,12,14,-1,-1,-1,-1,-1,-1,-1,-1],"split_conditions":[1E0,2.5451953E2,3.8432E1,1E0,6.7E1,1.002E1,2.6E1,6.7017734E-2,-6.0127564E-2,-6.693659E-2,3.4123253E-2,9.211063E-2,-1.1168572E-3,-7.935021E-2,-1.1270135E-2],"split_indices":[5007,5009,5009,5006,5001,5000,5001,0,0,0,0,0,0,0,0],"split_type":[0,0,0,0,0,0,0,0,0,0,0,0,0,0,0],"sum_hessian":[3.288423E2,2.4692581E2,8.191646E1,1.3443488E2,1.12490944E2,9.170788E0,7.2745674E1,1.1741507E2,1.70198E1,5.948492E1,5.300602E1,4.317258E0,4.85353E0,6.2069645E1,1.0676028E1],"tree_param":{"num_deleted":"0","num_feature":"5012","num_nodes":"15","size_leaf_vector":"1"}},{"base_weights":[-3.2214653E-3,-1.067418E-1,8.067436E-2,4.341663E-2,1.6181166E-1,-7.533797E-2,2.403507E-2],"categories":[],"categories_nodes":[],"categories_segments":[],"categories_sizes":[],"default_left":[0,0,0,0,0,0,0],"id":84,"left_children":[1,-1,3,5,-1,-1,-1],"loss_changes":[1.54563E1,0E0,7.989978E0,9.226121E0,0E0,0E0,0E0],"parents":[2147483647,0,0,2,2,3,3],"right_children":[2,-1,4,6,-1,-1,-1],"split_conditions":[1.4E1,-1.067418E-1,5.223165E-1,1.4181998E2,1.6181166E-1,-7.533797E-2,2.403507E-2],"split_indices":[5001,0,1205,5009,0,0,0],"split_type":[0,0,0,0,0,0,0],"sum_hessian":[3.4430283E2,4.644618E1,2.9785666E2,2.8450098E2,1.3355677E1,4.314651E1,2.4135448E2],"tree_param":{"num_deleted":"0","num_feature":"5012","num_nodes":"7","size_leaf_vector":"1"}},{"base_weights":[-5.720674E-3,-1.8065285E-2,1.8875927E-1,3.125516E-2,-2.5896153E-1,1.0144529E-2,-1.243948E-1,-6.290618E-2,9.875315E-3],"categories":[],"categories_nodes":[],"categories_segments":[],"categories_sizes":[],"default_left":[0,0,0,0,0,0,0,0,0],"id":85,"left_children":[1,3,-1,5,7,-1,-1,-1,-1],"loss_changes":[4.9228697E0,5.0452237E0,0E0,4.4363256E0,1.2787223E0,0E0,0E0,0E0,0E0],"parents":[2147483647,0,0,1,1,3,3,4,4],"right_children":[2,4,-1,6,8,-1,-1,-1,-1],"split_conditions":[3.8182992E-1,4.3E1,1.8875927E-1,2.0749627E-1,1E0,1.0144529E-2,-1.243948E-1,-6.290618E-2,9.875315E-3],"split_indices":[2491,5001,0,2507,5006,0,0,0,0],"split_type":[0,0,0,0,0,0,0,0,0],"sum_hessian":[4.2543246E2,4.2104477E2,4.387686E0,3.4986874E2,7.117604E1,3.4078802E2,9.080703E0,6.0565094E1,1.0610944E1],"tree_param":{"num_deleted":"0","num_feature":"5012","num_nodes":"9","size_leaf_vector":"1"}},{"base_weights":[-1.7179858E-2,-8.376127E-2,1.10340595E-1,-1.5694407E-1,1.0427765E-1,-9.351107E-3,-8.229315E-2],"categories":[],"categories_nodes":[],"categories_segments":[],"categories_sizes":[],"default_left":[0,0,0,0,0,0,0],"id":86,"left_children":[1,3,-1,5,-1,-1,-1],"loss_changes":[9.320912E0,9.84773E0,0E0,5.4984627E0,0E0,0E0,0E0],"parents":[2147483647,0,0,1,1,3,3],"right_children":[2,4,-1,6,-1,-1,-1],"split_conditions":[1.6348034E-1,1E0,1.10340595E-1,1.4783997E1,1.0427765E-1,-9.351107E-3,-8.229315E-2],"split_indices":[2516,2543,0,5010,0,0,0],"split_type":[0,0,0,0,0,0,0],"sum_hessian":[2.4509892E2,2.2033922E2,2.475971E1,1.973758E2,2.2963427E1,1.3884364E2,5.8532143E1],"tree_param":{"num_deleted":"0","num_feature":"5012","num_nodes":"7","size_leaf_vector":"1"}},{"base_weights":[4.5972588E-3,1.2869936E-1,-1.5019739E-1,-7.5471096E-2,2.27236E-1,-2.0466445E-1,1.3391194E-1,-3.5156634E-2,9.294837E-2,2.5923962E-2,1.2385011E-1,-1.09471075E-1,-2.1339534E-2],"categories":[],"categories_nodes":[],"categories_segments":[],"categories_sizes":[],"default_left":[0,0,0,0,0,0,0,0,0,0,0,0,0],"id":87,"left_children":[1,3,5,7,9,11,-1,-1,-1,-1,-1,-1,-1],"loss_changes":[7.8578134E0,4.6077952E0,8.204209E0,4.0873666E0,5.7370453E0,5.626346E0,0E0,0E0,0E0,0E0,0E0,0E0,0E0],"parents":[2147483647,0,0,1,1,2,2,3,3,4,4,5,5],"right_children":[2,4,6,8,10,12,-1,-1,-1,-1,-1,-1,-1],"split_conditions":[3E0,1E0,2.5693467E-1,4.681181E2,1.91315E2,1.3E1,1.3391194E-1,-3.5156634E-2,9.294837E-2,2.5923962E-2,1.2385011E-1,-1.09471075E-1,-2.1339534E-2],"split_indices":[5002,5007,2724,5009,5009,5010,0,0,0,0,0,0,0],"split_type":[0,0,0,0,0,0,0,0,0,0,0,0,0],"sum_hessian":[4.0714648E2,2.2642856E2,1.8071793E2,7.345244E1,1.5297612E2,1.7027657E2,1.0441355E1,6.267419E1,1.0778247E1,1.2374734E2,2.9228788E1,3.660905E1,1.3366751E2],"tree_param":{"num_deleted":"0","num_feature":"5012","num_nodes":"13","size_leaf_vector":"1"}},{"base_weights":[-2.1862134E-2,1.3801067E-1,-4.1702318E-1,1.5774386E-1,-1.3161232E-1,1.4889376E-1,-9.4158165E-2,1.2980792E-2,7.0408545E-2,9.9037826E-2,-5.0318178E-2],"categories":[],"categories_nodes":[],"categories_segments":[],"categories_sizes":[],"default_left":[0,0,0,0,0,0,0,0,0,0,0],"id":88,"left_children":[1,3,5,7,-1,9,-1,-1,-1,-1,-1],"loss_changes":[2.0480839E1,3.6734118E0,2.9448528E0,4.008112E0,0E0,1.3560658E0,0E0,0E0,0E0,0E0,0E0],"parents":[2147483647,0,0,1,1,2,2,3,3,5,5],"right_children":[2,4,6,8,-1,10,-1,-1,-1,-1,-1],"split_conditions":[1E0,3.3063257E-1,9.3596E0,6E0,-1.3161232E-1,5E0,-9.4158165E-2,1.2980792E-2,7.0408545E-2,9.9037826E-2,-5.0318178E-2],"split_indices":[5004,2698,5000,5002,0,5002,0,0,0,0,0],"split_type":[0,0,0,0,0,0,0,0,0,0,0],"sum_hessian":[3.2183688E2,2.2941763E2,9.241926E1,2.2477338E2,4.6442585E0,7.703987E0,8.471527E1,1.533489E2,7.142447E1,4.1386003E0,3.5653868E0],"tree_param":{"num_deleted":"0","num_feature":"5012","num_nodes":"11","size_leaf_vector":"1"}},{"base_weights":[1.7410045E-2,-1.18286185E-1,2.8460822E-1,-3.3110853E-2,-1.1395674E-1,-9.018388E-2,3.237807E-1,-1.2707862E-2,2.2920251E-1,2.7953443E-1,5.4963537E-2],"categories":[],"categories_nodes":[],"categories_segments":[],"categories_sizes":[],"default_left":[0,0,0,0,0,0,0,0,0,0,0],"id":89,"left_children":[1,3,5,7,-1,-1,9,-1,-1,-1,-1],"loss_changes":[1.4072044E1,9.80154E0,3.9017143E0,7.76473E0,0E0,0E0,6.0154524E0,0E0,0E0,0E0,0E0],"parents":[2147483647,0,0,1,1,2,2,3,3,6,6],"right_children":[2,4,6,8,-1,-1,10,-1,-1,-1,-1],"split_conditions":[1.4981995E1,1.4759979E1,9.2709625E1,3.6543727E-1,-1.1395674E-1,-9.018388E-2,1.0613999E2,-1.2707862E-2,2.2920251E-1,2.7953443E-1,5.4963537E-2],"split_indices":[5010,5010,5009,1129,0,0,5009,0,0,0,0],"split_type":[0,0,0,0,0,0,0,0,0,0,0],"sum_hessian":[3.857238E2,2.5593208E2,1.2979172E2,2.1640244E2,3.952965E1,5.9023056E0,1.23889404E2,2.1196342E2,4.439006E0,4.1121006E0,1.19777306E2],"tree_param":{"num_deleted":"0","num_feature":"5012","num_nodes":"11","size_leaf_vector":"1"}},{"base_weights":[-1.742991E-2,-1.03945374E-1,5.261869E-3,-7.6570255E-3,1.624153E-1,3.265138E-2,-1.1690209E-2],"categories":[],"categories_nodes":[],"categories_segments":[],"categories_sizes":[],"default_left":[0,0,0,0,0,0,0],"id":90,"left_children":[1,-1,3,5,-1,-1,-1],"loss_changes":[4.9654794E0,0E0,4.392107E0,3.5360787E0,0E0,0E0,0E0],"parents":[2147483647,0,0,2,2,3,3],"right_children":[2,-1,4,6,-1,-1,-1],"split_conditions":[9.3596E0,-1.03945374E-1,1.5019046E-1,1.2164276E1,1.624153E-1,3.265138E-2,-1.1690209E-2],"split_indices":[5000,0,4511,5010,0,0,0],"split_type":[0,0,0,0,0,0,0],"sum_hessian":[4.2989075E2,1.782505E1,4.120657E2,4.064245E2,5.6411943E0,9.2154884E1,3.1426962E2],"tree_param":{"num_deleted":"0","num_feature":"5012","num_nodes":"7","size_leaf_vector":"1"}},{"base_weights":[-8.679823E-3,-6.616936E-2,1.0664975E-1,-1.3439715E-1,1.015166E-1,-1.6498722E-2,-1.259176E-1],"categories":[],"categories_nodes":[],"categories_segments":[],"categories_sizes":[],"default_left":[0,0,0,0,0,0,0],"id":91,"left_children":[1,3,-1,5,-1,-1,-1],"loss_changes":[7.055602E0,8.100188E0,0E0,4.636202E0,0E0,0E0,0E0],"parents":[2147483647,0,0,1,1,3,3],"right_children":[2,4,-1,6,-1,-1,-1],"split_conditions":[1.6348034E-1,1E0,1.0664975E-1,1.1666667E1,1.015166E-1,-1.6498722E-2,-1.259176E-1],"split_indices":[2516,2543,0,5003,0,0,0],"split_type":[0,0,0,0,0,0,0],"sum_hessian":[2.2583278E2,2.0513393E2,2.0698847E1,1.8417303E2,2.09609E1,1.67939E2,1.6234034E1],"tree_param":{"num_deleted":"0","num_feature":"5012","num_nodes":"7","size_leaf_vector":"1"}},{"base_weights":[1.9760014E-2,5.3681187E-2,-4.35519E-1,2.3647876E-2,5.592346E-1,-1.04265526E-1,6.3099535E-3,2.0360458E-3,2.0668343E-1,1.7143138E-1,-8.785236E-2],"categories":[],"categories_nodes":[],"categories_segments":[],"categories_sizes":[],"default_left":[0,0,0,0,0,0,0,0,0,0,0],"id":92,"left_children":[1,3,5,7,9,-1,-1,-1,-1,-1,-1],"loss_changes":[5.834837E0,5.297428E0,1.114263E0,4.440956E0,6.2481246E0,0E0,0E0,0E0,0E0,0E0,0E0],"parents":[2147483647,0,0,1,1,2,2,3,3,4,4],"right_children":[2,4,6,8,10,-1,-1,-1,-1,-1,-1],"split_conditions":[1E0,1E0,2.0749627E-1,4.910752E-1,6.1383843E-1,-1.04265526E-1,6.3099535E-3,2.0360458E-3,2.0668343E-1,1.7143138E-1,-8.785236E-2],"split_indices":[5006,5005,2507,489,1210,0,0,0,0,0,0],"split_type":[0,0,0,0,0,0,0,0,0,0,0],"sum_hessian":[3.7777457E2,3.5260498E2,2.5169569E1,3.3400726E2,1.8597723E1,2.1345894E1,3.8236759E0,3.3070566E2,3.301623E0,1.451005E1,4.087673E0],"tree_param":{"num_deleted":"0","num_feature":"5012","num_nodes":"11","size_leaf_vector":"1"}},{"base_weights":[-3.3282966E-3,1.4584818E-1,-3.7976602E-1,2.2546218E-1,-1.6796118E-1,1.5769008E-1,-8.658828E-2,5.0472792E-2,-1.2248538E-1,3.1726997E-2,-5.0385255E-2,8.668384E-2,-2.7642837E-2],"categories":[],"categories_nodes":[],"categories_segments":[],"categories_sizes":[],"default_left":[0,0,0,0,0,0,0,0,0,0,0,0,0],"id":93,"left_children":[1,3,5,7,9,11,-1,-1,-1,-1,-1,-1,-1],"loss_changes":[1.6641973E1,5.334462E0,2.5015821E0,3.9414244E0,1.2332301E0,7.537633E-1,0E0,0E0,0E0,0E0,0E0,0E0,0E0],"parents":[2147483647,0,0,1,1,2,2,3,3,4,4,5,5],"right_children":[2,4,6,8,10,12,-1,-1,-1,-1,-1,-1,-1],"split_conditions":[1E0,1E0,9.3596E0,2.1464877E-1,5.5E0,2.6E1,-8.658828E-2,5.0472792E-2,-1.2248538E-1,3.1726997E-2,-5.0385255E-2,8.668384E-2,-2.7642837E-2],"split_indices":[5004,5007,5000,1831,5003,5001,0,0,0,0,0,0,0],"split_type":[0,0,0,0,0,0,0,0,0,0,0,0,0],"sum_hessian":[2.9395145E2,2.1077248E2,8.317898E1,1.6859885E2,4.217364E1,7.1424537E0,7.603653E1,1.641468E2,4.4520392E0,8.199614E0,3.3974026E1,3.6316416E0,3.510812E0],"tree_param":{"num_deleted":"0","num_feature":"5012","num_nodes":"13","size_leaf_vector":"1"}},{"base_weights":[3.3679537E-2,-1.0020512E-1,8.283846E-2,-1.8612131E-2,2.9914784E-1,1.1056624E-2,-1.150588E-1,9.547106E-2,1.7949207E-2],"categories":[],"categories_nodes":[],"categories_segments":[],"categories_sizes":[],"default_left":[0,0,0,0,0,0,0,0,0],"id":94,"left_children":[1,-1,3,5,7,-1,-1,-1,-1],"loss_changes":[9.777499E0,0E0,7.5320096E0,9.677951E0,3.985365E0,0E0,0E0,0E0,0E0],"parents":[2147483647,0,0,2,2,3,3,4,4],"right_children":[2,-1,4,6,8,-1,-1,-1,-1],"split_conditions":[9.2709625E1,-1.0020512E-1,1.4981995E1,1.4759979E1,1.9263718E1,1.1056624E-2,-1.150588E-1,9.547106E-2,1.7949207E-2],"split_indices":[5009,0,5010,5010,5010,0,0,0,0],"split_type":[0,0,0,0,0,0,0,0,0],"sum_hessian":[3.7098465E2,3.0290167E1,3.4069446E2,2.3222908E2,1.0846539E2,2.0565147E2,2.6577602E1,5.764799E1,5.0817398E1],"tree_param":{"num_deleted":"0","num_feature":"5012","num_nodes":"9","size_leaf_vector":"1"}},{"base_weights":[1.936536E-2,-1.0800473E-1,1.2585701E-1,-4.4064707E-1,-2.1094102E-3,2.4892464E-3,3.4868762E-1,-1.0903231E-1,6.468975E-2,1.9194458E-2,-1.073116E-1,7.9628915E-2,-2.6483724E-2,1.5786523E-1,2.570941E-2],"categories":[],"categories_nodes":[],"categories_segments":[],"categories_sizes":[],"default_left":[0,0,0,0,0,0,0,0,0,0,0,0,0,0,0],"id":95,"left_children":[1,3,5,7,9,11,13,-1,-1,-1,-1,-1,-1,-1,-1],"loss_changes":[5.7890406E0,6.786462E0,6.361603E0,3.9198656E0,7.871645E0,8.143939E0,7.822528E0,0E0,0E0,0E0,0E0,0E0,0E0,0E0,0E0],"parents":[2147483647,0,0,1,1,2,2,3,3,4,4,5,5,6,6],"right_children":[2,4,6,8,10,12,14,-1,-1,-1,-1,-1,-1,-1,-1],"split_conditions":[1E0,1.002E1,4E0,9E0,6E0,1.2164276E1,5E0,-1.0903231E-1,6.468975E-2,1.9194458E-2,-1.073116E-1,7.9628915E-2,-2.6483724E-2,1.5786523E-1,2.570941E-2],"split_indices":[5004,5000,5002,5002,5002,5010,5002,0,0,0,0,0,0,0,0],"split_type":[0,0,0,0,0,0,0,0,0,0,0,0,0,0,0],"sum_hessian":[4.2466547E2,1.9294226E2,2.317232E2,4.5599117E1,1.4734315E2,1.5008835E2,8.163485E1,4.0479637E1,5.119481E0,1.2503087E2,2.2312275E1,3.785574E1,1.1223261E2,2.6184177E1,5.5450672E1],"tree_param":{"num_deleted":"0","num_feature":"5012","num_nodes":"15","size_leaf_vector":"1"}},{"base_weights":[-1.5067709E-2,-7.131627E-2,1.06918655E-1,-9.765051E-4,-2.5289142E-1,-1.8883651E-2,6.256419E-2,-7.126017E-2,-2.1272002E-2],"categories":[],"categories_nodes":[],"categories_segments":[],"categories_sizes":[],"default_left":[0,0,0,0,0,0,0,0,0],"id":96,"left_children":[1,3,-1,5,7,-1,-1,-1,-1],"loss_changes":[6.998674E0,2.6135483E0,0E0,4.4159884E0,7.8404236E-1,0E0,0E0,0E0,0E0],"parents":[2147483647,0,0,1,1,3,3,4,4],"right_children":[2,4,-1,6,8,-1,-1,-1,-1],"split_conditions":[1.6348034E-1,4E0,1.06918655E-1,3.1558826E3,1E0,-1.8883651E-2,6.256419E-2,-7.126017E-2,-2.1272002E-2],"split_indices":[2516,5002,0,5011,5004,0,0,0,0],"split_type":[0,0,0,0,0,0,0,0,0],"sum_hessian":[2.2563036E2,2.0563887E2,1.9991495E1,1.4934193E2,5.6296932E1,1.1585941E2,3.3482517E1,3.1765522E1,2.4531412E1],"tree_param":{"num_deleted":"0","num_feature":"5012","num_nodes":"9","size_leaf_vector":"1"}},{"base_weights":[-2.9246012E-2,-5.0966036E-2,1.2920833E-1,6.9163345E-2,-2.1642037E-1,-5.6352135E-2,2.564992E-2,-5.1853932E-2,5.2679904E-2],